SVM-light Version V6.02
1 # kernel type
1 # kernel parameter -d 
1 # kernel parameter -g 
1 # kernel parameter -s 
1 # kernel parameter -r 
empty# kernel parameter -u 
34 # highest feature index 
234 # number of training documents 
85 # number of support vectors plus 1 
4.0442577 # threshold b, each following line is a SV (starting with alpha*y)
-1 1:-0.02447 2:-0.13738 3:-0.062880002 4:-0.16626 5:-0.11593 6:-0.1904 7:-0.18401 8:-0.20468 9:-0.26569 10:-0.20332 11:-0.35734001 12:-0.18055999 13:-0.45300001 14:-0.13151 15:-1 16:0.33109 17:-0.62237 18:0.054990001 19:-0.97514999 20:-0.51684999 21:-0.69707 22:0.34432 23:-0.67742997 24:0.50874001 25:-0.04549 26:1 27:-0.93597001 28:-0.10868 29:-0.36155999 30:0.93035001 31:-0.18829 32:1 33:0 34:1 #
0.14085534758613535433191543688736 1:-0.66667002 2:1 3:-1 4:0 5:-1 6:1 7:-1 8:0.19235 9:-1 10:-0.33333001 11:-0.33333001 12:-1 13:-0.92536002 14:-1 15:-0.66667002 16:-1 17:0 18:-1 19:1 20:-1 21:1 22:0 23:1 24:-1 25:1 26:-0.33333001 27:1 28:0.77122998 29:1 30:1 31:0.63547999 32:1 33:0 34:1 #
0.23764902348629471373619992391468 1:0.49831 2:0.30588001 3:0.49721 4:0.35069999 5:1 6:0.12473 7:0.48199999 8:0.44174001 9:0.57549 10:0.94529998 11:0.44872001 12:0.53119999 13:0.42528 14:0.57398999 15:-0.028449999 16:0.64332998 17:0.17287 18:0.49671999 19:0.32925001 20:0.68798 21:0.28953999 22:0.71947002 23:0.21224999 24:1 25:0.052519999 26:0.55580002 27:0.15266 28:0.78825998 29:0.10278 30:0.80150998 31:-0.38293001 32:0.73523003 33:0 34:1 #
1 1:-0.65697002 2:-0.046080001 3:-0.59573001 4:-0.057069998 5:-0.62197 6:0.02431 7:-0.53206003 8:0.1329 9:-0.65157998 10:0.03286 11:-0.52879 12:0.023089999 13:-0.35574999 14:0.05982 15:-0.17813 16:0.45107001 17:-0.21780001 18:0.52939999 19:-0.27456999 20:0.34395 21:-0.0071200002 22:0.56409001 23:-0.20275 24:0.52798003 25:-0.16399001 26:0.77152002 27:-0.23255 28:0.92106003 29:0.065310001 30:0.94139999 31:-0.024010001 32:1 33:0 34:1 #
-1 1:-1 2:1 3:-1 4:1 5:-1 6:1 7:-0.62744999 8:1 9:-0.40888 10:1 11:1 12:1 13:1 14:1 15:-0.93598998 16:1 17:-0.29354 18:1 19:-1 20:1 21:1 22:1 23:-0.41119 24:1 25:0.36217001 26:1 27:-1 28:1 29:-1 30:1 31:-0.54210001 32:1 33:0 34:1 #
1 1:-0.57757998 2:1 3:0.53372002 4:1 5:-0.11129 6:1 7:-0.11582 8:1 9:0.14803 10:1 11:-0.91338003 12:0.92598999 13:-0.01891 14:0.96354002 15:0.26589999 16:1 17:0.39337 18:1 19:0.14638001 20:0.76836997 21:-0.12526999 22:0.79961997 23:-0.49862999 24:1 25:-0.28207001 26:1 27:-0.58388001 28:0.83442998 29:0.27686 30:0.72314 31:-0.15899 32:1 33:0 34:1 #
-1 1:-1 2:1 3:-1 4:1 5:-1 6:1 7:-1 8:1 9:-1 10:1 11:-1 12:1 13:-0.62796003 14:1 15:-1 16:1 17:-1 18:1 19:-1 20:1 21:-1 22:1 23:-1 24:1 25:-1 26:1 27:-1 28:1 29:-1 30:1 31:0.57819998 32:1 33:0 34:1 #
0.60672061897753026826762834389228 1:1 2:-0.55555999 3:1 4:0.22222 5:0.84353 6:0.57454002 7:0.45019001 8:0.92119998 9:0 10:0.33333001 11:-0.22222 12:0.77778 13:-0.77778 14:-0.22222 15:-1 16:0.55555999 17:-0.77778 18:-0.66667002 19:-0.22222 20:-1 21:-0.11111 22:-1 23:0.33333001 24:-1 25:0.88889003 26:-0.33333001 27:1 28:-0.22222 29:0.90763003 30:0.53694999 31:0.44444001 32:0.44444001 33:0 34:1 #
1 1:0.042330001 2:0.26719999 3:-0.24338999 4:0.24868 5:-0.21693 6:0.15873 7:-0.31738999 8:0.035739999 9:0.0026499999 10:-0.23280001 11:-0.38095 12:-0.14815 13:-0.1455 14:-0.14815 15:-0.1164 16:-0.5 17:0.068779998 18:-0.51586998 19:0.32539999 20:-0.4127 21:0.31217 22:-0.34127 23:0.53968 24:-0.021159999 25:0.49471 26:0.018519999 27:0.47619 28:0.25661001 29:0.33598 30:0.42328 31:0.22751001 32:0.4709 33:0 34:1 #
-0.54655568395210007981432909218711 1:1 2:1 3:1 4:1 5:-1 6:1 7:1 8:1 9:-1 10:1 11:-1 12:1 13:-1 14:1 15:-1 16:1 17:1 18:1 19:1 20:1 21:-1 22:1 23:1 24:1 25:1 26:1 27:1 28:1 29:1 30:1 31:-1 32:1 33:0 34:0 #
-0.80954301311392917739340191474184 1:-1 2:1 3:1 4:1 5:-1 6:1 7:1 8:1 9:-1 10:1 11:1 12:1 13:1 14:1 15:-1 16:1 17:1 18:1 19:-1 20:1 21:-1 22:1 23:1 24:1 25:1 26:1 27:1 28:1 29:1 30:1 31:-1 32:1 33:0 34:0 #
-0.52433171802547207107636495493352 1:-0.063139997 2:-0.00526 3:-0.074639998 4:-0.02916 5:-1 6:-1 7:-0.071139999 8:-0.099710003 9:-0.048020002 10:-0.14003 11:0.36364001 12:-0.18636 13:0.050779998 14:-0.20028 15:0.12727 16:-0.34773001 17:0.40454999 18:0.02727 19:0.27322 20:-0.13349999 21:0.33636001 22:-0.19091 23:0.36194 24:0.045170002 25:0.44317999 26:-0.036359999 27:0.27954999 28:0.23182 29:0.125 30:0.34999999 31:0.12482 32:0.41931999 33:0 34:1 #
1 1:-5.9999998e-05 2:-7.9999998e-05 3:-0.00012 4:-0.00012 5:-0.00023999999 6:-0.00018 7:-0.00047999999 8:-0.00025000001 9:-0.00089999998 10:-0.00031 11:-0.00166 12:-0.00028000001 13:-0.0029899999 14:-2.9999999e-05 15:-0.0052299998 16:0.00078 17:-0.0089299995 18:0.00281 19:-0.01482 20:0.0074100001 21:-0.02383 22:0.017069999 23:-0.03689 24:0.036490001 25:-0.054310001 26:0.074050002 27:-0.068970002 28:0.2069 29:-0.10345 30:0.24138001 31:-0.10345 32:0.31033999 33:0 34:1 #
1 1:-0.050000001 2:0.41666999 3:0.033330001 4:0.46667001 5:0.033330001 6:0.40000001 7:0.054389998 8:0.46213999 9:0.13333 10:0.25 11:0 12:0.69999999 13:0.2 14:0.31667 15:-0.01667 16:0.41666999 17:0.2 18:0.53333002 19:-0.066670001 20:0.69999999 21:0.083329998 22:0.71666998 23:0.01667 24:0.56667 25:0.11667 26:0.36667001 27:-0.13333 28:0.33333001 29:0 30:0.53333002 31:-0.1 32:0.26666999 33:0 34:1 #
-1 1:-0.065569997 2:0.49180001 3:-0.44262001 4:0.27869001 5:-0.032790001 6:0.32787001 7:-0.20325001 8:0.52385002 9:-0.34426001 10:0.31147999 11:-0.29508001 12:1 13:0.032790001 14:0.67212999 15:-0.17175999 16:0.65557998 17:-0.14754 18:0.19672 19:-0.16393 20:0.68852001 21:0 22:0.72131002 23:-0.032790001 24:0.85246003 25:0.01639 26:0.65574002 27:-0.01639 28:0.57376999 29:0.049180001 30:1 31:-0.14754 32:1 33:0 34:1 #
1 1:-0.091859996 2:0.79088998 3:-0.01942 4:0.73935997 5:-0.064230002 6:0.88125002 7:-0.03678 8:0.82383001 9:-0.01942 10:0.79685998 11:0.022399999 12:0.90515 13:0.01195 14:0.88125002 15:-0.1419 16:0.83569998 17:-0.067960002 18:0.83718997 19:0.035100002 20:0.78342003 21:-0.061239999 22:0.88050997 23:0.11949 24:0.86258 25:0.090369999 26:0.84316999 27:-0.041820001 28:0.77521002 29:-0.056759998 30:0.81927001 31:0.00075000001 32:0.85736001 33:0 34:1 #
1 1:-0.01877 2:0.14693999 3:-0.020339999 4:0.16997001 5:0 6:0.19047999 7:-0.0229 8:0.22109 9:-0.047619998 10:0.35714 11:-0.11905 12:0.21428999 13:0 14:0.30952001 15:0.047619998 16:0.33333001 17:-0.11905 18:0.28571001 19:-0.047619998 20:0.30952001 21:-0.047619998 22:0.30952001 23:0.023809999 24:0.40476 25:0.095239997 26:0.23810001 27:0.19047999 28:0.19047999 29:0.071429998 30:0.33333001 31:-0.095239997 32:0.21428999 33:0 34:1 #
-1 1:0 2:0 3:-1 4:1 5:-1 6:1 7:-1 8:-1 9:-1 10:-1 11:-1 12:0.18381999 13:0 14:0 15:-0.60294002 16:0.73528999 17:-0.77205998 18:0.72059 19:0 20:0 21:0 22:0 23:-0.94853002 24:-0.41912001 25:0.55146998 26:0.80882001 27:-0.99264997 28:0.77941 29:0 30:0 31:-1 32:1 33:0 34:1 #
1 1:0.073169999 2:0.17072999 3:0 4:0.19512001 5:0.055039998 6:0.1741 7:0.05641 8:0.19304 9:0.097560003 10:0.21951 11:0.05813 12:0.23698001 13:0.12195 14:0.26829001 15:0.073169999 16:0.31707001 17:0 18:0.36585 19:0 20:0.29268 21:0.048780002 22:0.21951 23:0.04755 24:0.43313 25:0.12195 26:0.19512001 27:0.03466 28:0.52750999 29:-0.024390001 30:0.34145999 31:0.01403 32:0.64121997 33:0 34:1 #
-1 1:-1 2:1 3:-1 4:1 5:0 6:0 7:0.5 8:1 9:1 10:1 11:1 12:1 13:1 14:1 15:1 16:1 17:1 18:1 19:-1 20:1 21:1 22:1 23:1 24:1 25:1 26:1 27:-1 28:1 29:-1 30:1 31:1 32:1 33:0 34:1 #
1 1:-0.14725 2:0.85841 3:-0.10194 4:0.78316998 5:0.093850002 6:0.98544002 7:-0.023019999 8:0.87292999 9:-0.02589 10:0.84547001 11:-0.03641 12:0.75081003 13:0.26133001 14:0.84871 15:-0.14482 16:0.87379003 17:-0.25323999 18:0.84627998 19:0.050969999 20:0.91586 21:0.081720002 22:0.99676001 23:0.090609998 24:0.96196997 25:0.16828001 26:0.93123001 27:-0.40129 28:0.92313999 29:0.43204001 30:0.60760999 31:-0.0019 32:0.93668997 33:0 34:1 #
-1 1:1 2:1 3:0.87317002 4:1 5:0.069770001 6:0.84495997 7:0.71613002 8:1 9:0.038759999 10:0.80620003 11:-1 12:1 13:0.50669998 14:1 15:0.11628 16:0.90697998 17:0.04651 18:0.81395 19:1 20:1 21:0.27153 22:1 23:0.038759999 24:0.83721 25:-0.0077499999 26:0.91473001 27:1 28:1 29:0.080689996 30:1 31:0.054260001 32:0.85271001 33:0 34:1 #
-1 1:-0.41666999 2:0.17045 3:-0.02273 4:0.18182001 5:0.24242 6:0.43182001 7:-0.57576001 8:0.25758001 9:-0.27272999 10:0.29166999 11:0.17803 12:-0.57576001 13:-0.53408998 14:0.01894 15:-0.14772999 16:0.12121 17:0.32955 18:-0.53788 19:0.31439 20:0.36364001 21:0.51893997 22:-0.075759999 23:0.39394 24:0.42803001 25:0.28788 26:0.34470001 27:0 28:0 29:0 30:0 31:-0.63635999 32:0.62120998 33:0 34:1 #
-0.15875118394476409044990816710197 1:0 2:0 3:-1 4:1 5:0 6:0 7:-1 8:-1 9:-1 10:1 11:0 12:0 13:-1 14:1 15:-1 16:1 17:-1 18:-1 19:-0.3125 20:-1 21:-1 22:-1 23:0 24:0 25:-1 26:-1 27:1 28:1 29:1 30:-1 31:0 32:0 33:0 34:0 #
1 1:-0.2449 2:-0.26530999 3:0 4:-0.34694001 5:0.18367 6:-0.59184003 7:0.14895 8:-0.46579 9:0.22449 10:-0.61224002 11:0.32653001 12:-0.28571001 13:0.44898 14:-0.28571001 15:0.55102003 16:-0.20408 17:0.55102003 18:-0.061220001 19:0.51020002 20:0 21:0.55102003 22:0.12245 23:0.59184003 24:0.30612001 25:0.44898 26:0.46939 27:0.20408 28:0.40816 29:0.2449 30:0.46939 31:0.20408 32:0.34694001 33:0 34:1 #
-1 1:0 2:0 3:1 4:0 5:-1 6:1 7:-0.2 8:-1 9:1 10:1 11:-1 12:-0.60000002 13:-1 14:1 15:-1 16:-1 17:-1 18:-1 19:0 20:0 21:-1 22:1 23:0 24:0 25:-1 26:-0.85000002 27:0 28:0 29:0 30:0 31:0 32:0 33:0 34:1 #
0.80626819563781659816470437363023 1:-0.24324 2:0.51350999 3:-0.59459001 4:0.72973001 5:-0.23027 6:0.58477998 7:-0.22163001 8:0.61031002 9:-0.29730001 10:0.35135001 11:0.13514 12:0.75676 13:0.054049999 14:0.62162 15:-0.17666 16:0.71833003 17:-0.21622001 18:0.32431999 19:-0.054049999 20:0.62162 21:0 22:0.51350999 23:-0.27026999 24:1 25:0.18919 26:0.86486 27:-0.24324 28:0.64864999 29:0.29730001 30:0.64864999 31:-0.37838 32:1 33:0 34:1 #
-1 1:0 2:0 3:1 4:-0.94375002 5:1 6:1 7:1 8:1 9:1 10:1 11:1 12:0.3125 13:1 14:1 15:1 16:1 17:-1 18:1 19:0 20:0 21:1 22:1 23:0.03125 24:0.025 25:1 26:1 27:-1 28:0.625 29:0.51249999 30:1 31:1 32:1 33:0 34:1 #
-1 1:0.12755001 2:0.34411001 3:0.13521001 4:0.39118001 5:-0.02612 6:0.32462999 7:0.1463 8:0.49309 9:0.16418 10:0.47014999 11:0.45522001 12:0.83209002 13:0.14792 14:0.65574002 15:-0.11567 16:0.46641999 17:-0.10448 18:0.66790998 19:0.67909998 20:0.57836002 21:-0.82090002 22:0.61567003 23:0.13060001 24:0.54478002 25:0.15299 26:0.35821 27:1 28:1 29:0.043280002 30:0.97464001 31:-0.063429996 32:0.39179 33:0 34:1 #
-1 1:0.0305 2:0.40445 3:-0.31228 4:-0.27103999 5:0.185 6:-0.47 7:-0.28475001 8:0.32190001 9:-0.23999999 10:-0.57999998 11:0.33175999 12:0.29908001 13:-0.079999998 14:-0.47999999 15:0.31408 16:-0.34187001 17:0.235 18:-0.087499999 19:0.20999999 20:-0.094999999 21:0.27500001 22:0.092500001 23:-0.34617001 24:0.36285001 25:0.34999999 26:0.32249999 27:0.3175 28:0.2825 29:0.1 30:0.23 31:0.28749999 32:-0.205 33:0 34:1 #
1 1:0.0078800004 2:0.79014999 3:0.02956 4:0.82955998 5:-0.050250001 6:0.74089003 7:0.00612 8:0.78040999 9:-0.01478 10:0.72610998 11:0.05517 12:0.74778003 13:0.033500001 14:0.75961 15:-0.02956 16:0.79113001 17:-0.0078800004 18:0.80098999 19:0.01675 20:0.85123003 21:0.032510001 22:0.83350003 23:-0.00985 24:0.78424001 25:0.01084 26:0.79014999 27:0.0019700001 28:0.80000001 29:0.01084 30:0.79703999 31:-0.01084 32:0.72413999 33:0 34:1 #
1 1:0.17254999 2:0.43136999 3:0.23529001 4:0.45098001 5:0.082350001 6:0.46274999 7:0.10039 8:0.48600999 9:0.00392 10:0.49803999 11:0.082350001 12:0.58038998 13:0.066670001 14:0.45881999 15:0 16:0.50195998 17:0.015690001 18:0.58038998 19:-0.054900002 20:0.52548999 21:0.082350001 22:0.46667001 23:0.14117999 24:0.56471002 25:-0.058820002 26:0.40000001 27:0.12941 28:0.38431001 29:0 30:0.40391999 31:-0.015690001 32:0.57647002 33:0 34:1 #
0.20520972582109978099573766030517 1:-0.057399999 2:1 3:-0.1875 4:1 5:0.079080001 6:0.75638002 7:-0.0039400002 8:1 9:-0.14541 10:1 11:0.30803999 12:0.90306002 13:0.00191 14:1 15:0.077169999 16:0.95662999 17:-0.13074 18:1 19:0.024870001 20:0.98214 21:0.021050001 22:0.99744999 23:0.20663001 24:0.70217001 25:-0.073980004 26:0.98150998 27:-0.076530002 28:1 29:-0.16964 30:0.80804002 31:0.38264999 32:0.79847002 33:0 34:1 #
-0.64917118398506079568477389329928 1:-1 2:1 3:1 4:1 5:1 6:1 7:1 8:1 9:1 10:1 11:-1 12:1 13:1 14:1 15:1 16:1 17:1 18:1 19:-1 20:1 21:-1 22:1 23:-1 24:1 25:1 26:1 27:-1 28:1 29:1 30:1 31:-1 32:1 33:0 34:0 #
-1 1:-1 2:-0.23186 3:-0.87353998 4:0.86136001 5:-0.21901 6:0.63810998 7:-0.41306999 8:0.93124002 9:-0.20392001 10:0.65493 11:0.054559998 12:0.51933002 13:0.92729998 14:-0.25914001 15:-0.28257 16:0.80760002 17:-0.17862999 18:0.82270002 19:-1 20:0.83726001 21:1 22:0.58964998 23:-0.10951 24:1 25:-0.10236 26:0.99708998 27:-0.094729997 28:0.98018998 29:-0.23067001 30:0.41286999 31:-0.02595 32:0.71253002 33:0 34:1 #
-1 1:-0.65934998 2:1 3:-0.63156003 4:1 5:-0.27778 6:1 7:-0.57091999 8:1 9:-0.27778 10:1 11:-0.50332999 12:1 13:-0.25 14:0 15:-0.42862001 16:1 17:-0.38852999 18:1 19:-0.3466 20:1 21:-0.11111 22:0.16666999 23:-0.25712001 24:1 25:-0.22222 26:0.36111 27:-0.11111 28:0.5 29:-1 30:1 31:-0.055289999 32:1 33:0 34:1 #
-1 1:-0.19904 2:-0.67698997 3:-0.05525 4:-0.71474999 5:0.11218 6:-0.72368997 7:0.25835001 8:-0.71844 9:0.39951 10:-0.68159002 11:0.53805 12:-0.57134998 13:0.65924001 14:-0.46634999 15:0.79617 16:-0.28738999 17:0.87396002 18:-0.12611 19:0.85038 20:0.064379998 21:0.87493002 22:0.24412 23:0.81151998 24:0.44303 25:0.72996998 26:0.59784001 27:0.50515002 28:0.7299 29:0.37379 30:0.79299003 31:0.16607 32:0.90116 33:0 34:1 #
-1 1:0 2:0 3:0 4:0 5:0 6:0 7:0 8:-9.9999997e-06 9:1.9999999e-05 10:-2.9999999e-05 11:0.00019000001 12:-2.9999999e-05 13:0.00075000001 14:0.00047999999 15:0.00096999999 16:0.00342 17:-0.0053699999 18:0.01108 19:-0.034030002 20:0.01401 21:-0.089699998 22:-0.031580001 23:-0.10241 24:-0.18599001 25:0.29730001 26:0.054049999 27:0.55734998 28:-0.39466 29:1 30:-0.72973001 31:0.81585997 32:0.91352999 33:0 34:1 #
1 1:-0.01425 2:0.93322998 3:-0.25705999 4:0.84463 5:-0.32297999 6:0.61581999 7:-0.01158 8:0.93357998 9:-0.02778 10:0.90065998 11:-0.1629 12:0.46610001 13:1 14:1 15:-0.20104 16:0.86676002 17:-0.29519999 18:0.75 19:-0.57485998 20:0.91714001 21:0.54991001 22:0.88559002 23:-0.017890001 24:0.81120998 25:0.13795 26:0.87946999 27:-0.0026700001 28:0.93421 29:0.02919 30:0.43643999 31:-0.18362001 32:0.84134001 33:0 34:1 #
-0.52091684395614978875244105438469 1:1 2:1 3:1 4:-0.75 5:-0.75 6:1 7:0.625 8:1 9:1 10:1 11:-1 12:1 13:1 14:1 15:1 16:1 17:0 18:0 19:1 20:1 21:1 22:1 23:1 24:1 25:-0.5 26:1 27:1 28:1 29:1 30:1 31:-1 32:1 33:0 34:1 #
1 1:-0.00291 2:0.00025000001 3:-0.0040799999 4:-0.00089000002 5:-0.0052 6:-0.00294 7:-0.0058599999 8:-0.0062099998 9:-0.0053900001 10:-0.01097 11:-0.0027300001 12:-0.01726 13:0.0035699999 14:-0.024739999 15:0.01532 16:-0.032299999 17:0.03458 18:-0.037659999 19:0.063170001 20:-0.036850002 21:0.10188 22:-0.023669999 23:0.14922 24:0.0107 25:0.19938999 26:0.077660002 27:0.23965999 28:0.19035999 29:0.26666999 30:0.46667001 31:0.16666999 32:0.25 33:0 34:1 #
-1 1:0.37408999 2:1 3:0.22464 4:1 5:-0.019470001 6:0.37681001 7:0.15942 8:1 9:-0.33333001 10:0.91033 11:0.26585001 12:0.89130002 13:0.63496 14:1 15:-0.43024999 16:0.58424002 17:0.02672 18:1 19:0.35506999 20:1 21:0.60597998 22:1 23:0.27037999 24:1 25:0.084239997 26:0.66938001 27:-1 28:1 29:0.39129999 30:1 31:0.10598 32:0.84783 33:0 34:1 #
1 1:-0.11717 2:0.96522999 3:-0.13722 4:1 5:0.038849998 6:0.91165 7:-0.04597 8:0.96237999 9:-0.01253 10:1 11:0.092419997 12:0.99624002 13:0.037280001 14:0.97399998 15:-0.15633 16:0.83583999 17:-0.18954 18:0.95801997 19:0.066100001 20:1 21:-0.068609998 22:0.98119998 23:0.2782 24:1 25:0.15414 26:1 27:-0.10401 28:1 29:-0.78509003 30:1 31:0.23058 32:1 33:0 34:1 #
-1 1:0 2:0 3:-1 4:1 5:-1 6:-1 7:-1 8:-1 9:-0.59609002 10:1 11:-1 12:-1 13:-1 14:0.97068 15:-0.63518 16:0.36482 17:-0.26710001 18:1 19:0 20:0 21:0 22:0 23:-0.41367999 24:-1 25:0.32899001 26:0.60585999 27:-0.78501999 28:0.50814003 29:0 30:0 31:-1 32:-1 33:0 34:1 #
1 1:0.15114 2:0.57454997 3:0.14697 4:0.59759003 5:0.17539001 6:0.65706998 7:0.13608 8:0.64157999 9:0.15445 10:0.67016 11:0.12185 12:0.68182999 13:0.11355 14:0.70020998 15:0 16:0.63612998 17:-0.078529999 18:0.70681 19:0.084420003 20:0.74694997 21:0.073480003 22:0.75933999 23:0.31152001 24:0.67800999 25:0.099480003 26:0.66229999 27:0.037930001 28:0.78574997 29:0.025429999 30:0.79074001 31:0.049740002 32:0.74084002 33:0 34:1 #
1 1:0.31154001 2:-0.23846 3:0.23896 4:-0.26633999 5:0.29541001 6:-0.23831999 7:0.34976 8:-0.19939999 9:0.40006 10:-0.14943001 11:0.44424 12:-0.08856 13:0.42885 14:-0.034619998 15:0.57499999 16:-0.098080002 17:0.51876998 18:0.15215001 19:0.37114999 20:0.25192001 21:0.57308 22:0.25 23:0.46439001 24:0.44793001 25:0.45576999 26:0.36923 27:0.19038001 28:0.64614999 29:0.24323 30:0.73061001 31:0.13068999 32:0.80627 33:0 34:1 #
-1 1:-0.27451 2:0.47059 3:-0.21569 4:0.43136999 5:-0.31373 6:0.56862998 7:-0.24668001 8:0.52408999 9:-0.25490001 10:0.45098001 11:-0.23529001 12:0.66667002 13:-0.19608 14:0.58824003 15:-0.21569 16:0.54901999 17:-0.11765 18:0.54901999 19:-0.09804 20:0.64705998 21:-0.13725001 22:0.66667002 23:-0.11765 24:0.68627 25:-0.11765 26:0.62744999 27:-0.078429997 28:0.60784 29:0 30:0.72548997 31:-0.078429997 32:0.62744999 33:0 34:1 #
-0.24790119470174012961116716269316 1:-1 2:-1 3:0 4:0 5:1 6:1 7:1 8:1 9:-1 10:1 11:1 12:1 13:-1 14:-1 15:-1 16:1 17:-1 18:-1 19:1 20:1 21:-0.1875 22:-1 23:1 24:1 25:0 26:0 27:1 28:-1 29:-1 30:1 31:1 32:-1 33:0 34:0 #
-0.78815254090329167624418005289044 1:0 2:0 3:0 4:0 5:1 6:1 7:-1 8:1 9:-1 10:-1 11:0.20300999 12:0.62029999 13:0 14:0 15:0 16:0 17:1 18:0.64661998 19:0.28571001 20:-0.95489001 21:0.45489001 22:-0.51503998 23:-0.89098001 24:0.47744 25:0 26:0 27:0 28:0 29:0 30:0 31:1 32:1 33:0 34:1 #
0.70922168616422887055250612320378 1:-0.31953999 2:-0.42912 3:-0.19923 4:-0.54865998 5:-0.078160003 6:-0.57240999 7:0.088179998 8:-0.63037997 9:0.25747001 10:-0.59233999 11:0.40996 12:-0.60229999 13:0.56092 14:-0.48199001 15:0.65746999 16:-0.34099999 17:0.75784999 18:-0.17241 19:0.86284 20:-0.04061 21:0.85671002 22:0.19617 23:0.81533003 24:0.36704999 25:0.69962001 26:0.54558998 27:0.55785 28:0.67202997 29:0.41148999 30:0.80919999 31:0.19310001 32:0.86284 33:0 34:1 #
1 1:0.14782999 2:0.50435001 3:-0.25217 4:0.64348 5:-0.04448 6:0.48348001 7:-0.042640001 8:0.4993 9:-0.12174 10:0.31303999 11:-0.038449999 12:0.53245997 13:0.11739 14:0.26956999 15:-0.26087001 16:0.36087 17:-0.42609 18:0.38696 19:0.37825999 20:0.50435001 21:-0.23043001 22:0.57826 23:0.26956999 24:0.5 25:0.18261001 26:0.65217 27:0.38260999 28:0.45217001 29:0.043480001 30:0.64348 31:-0.24783 32:0.7087 33:0 34:1 #
-1 1:0.34731999 2:1 3:0.65267998 4:1 5:-0.36250001 6:0.95981997 7:-0.085709997 8:1 9:0.85356998 10:1 11:-1 12:1 13:0.85268003 14:1 15:0.78035998 16:1 17:0.70981997 18:0.17589 19:0.73392999 20:1 21:-0.89375001 22:1 23:-1 24:1 25:-0.40446001 26:0.80892998 27:-0.67321002 28:1 29:1 30:1 31:-1 32:0.66161001 33:0 34:1 #
1 1:-0.01832 2:0.28985 3:0 4:0.36364001 5:0 6:0.27272999 7:-0.017680001 8:0.34441999 9:-0.090910003 10:0.36364001 11:0.18182001 12:0.27272999 13:-0.090910003 14:0.36364001 15:0 16:0.45455 17:-0.18182001 18:0.63635999 19:-0.01343 20:0.48611999 21:-0.090910003 22:0.45455 23:-0.090910003 24:0.36364001 25:0 26:0.63635999 27:0.18182001 28:0.27272999 29:0.090910003 30:0.63635999 31:0.090910003 32:0.45455 33:0 34:1 #
-1 1:0.68822002 2:0.81979001 3:0.81006998 4:0.87756997 5:0.42677 6:0.62958002 7:0.17076001 8:1 9:-0.30063 10:0.28604001 11:-0.85755002 12:0.86669999 13:-0.69594002 14:0.98483998 15:0.18134999 16:0.88673002 17:-0.052060001 18:0.95451999 19:0.88444 20:0.91961998 21:-0.85727 22:0.95823997 23:0.079810001 24:0.97311002 25:-0.10984 26:0.84009999 27:0.70709002 28:0.76001 29:0.80520999 30:0.82809001 31:0.40332001 32:0.5984 33:0 34:1 #
1 1:0.16666999 2:0.63332999 3:0.16666999 4:0.60000002 5:0.13333 6:0.60000002 7:0.10168 8:0.65932 9:0.13333 10:0.63332999 11:0 12:0.76666999 13:-0.033330001 14:0.73333001 15:0.1 16:0.66667002 17:0.1 18:0.69999999 19:0 20:0.73333001 21:0 22:0.80000001 23:0 24:0.63332999 25:0 26:0.69999999 27:0.066670001 28:0.69999999 29:0.066670001 30:0.63332999 31:0.033330001 32:0.60000002 33:0 34:1 #
-0.13519042109179735255963805684587 1:0 2:0 3:0.23187999 4:1 5:0 6:0 7:0.26501 8:0.39752001 9:0.92236 10:-0.16253 11:0 12:0 13:0 14:0 15:-1 16:1 17:0.036230002 18:-0.37681001 19:-0.34265 20:-1 21:0 22:0 23:-1 24:0.43685001 25:-1 26:1 27:-1 28:-0.0352 29:0.26708001 30:1 31:-0.93996 32:0.50932002 33:0 34:1 #
-0.51001864600185364828632827993715 1:0 2:0 3:0 4:0 5:0 6:0 7:0.63492 8:0.76190001 9:0.27381 10:0.73413002 11:0 12:0 13:0 14:0 15:0.78175002 16:0.46428999 17:0.19444001 18:0.21032 19:-0.24206001 20:0.20635 21:0 22:0 23:0 24:0 25:0 26:0 27:0.69840997 28:-0.32936999 29:0 30:0 31:0.38889 32:0.69444001 33:0 34:1 #
1 1:0 2:1 3:-0.11111 4:0.88889003 5:0.11111 6:1 7:-0.053520001 8:0.90346998 9:0 10:0.66667002 11:-0.11111 12:0.66667002 13:-0.11111 14:0.77778 15:-0.11111 16:1 17:0 18:0.77778 19:0 20:0.77778 21:-0.22222 22:1 23:-0.11111 24:0.88889003 25:-0.11111 26:1 27:0.11111 28:0.66667002 29:0 30:1 31:0 32:1 33:0 34:1 #
-1 1:0.04586 2:-0.040130001 3:0.070639998 4:-0.045850001 5:0.10349 6:-0.047789998 7:0.14481001 8:-0.043140002 9:0.19405 10:-0.028620001 11:0.24936 12:-0.00082999998 13:0.30745 14:0.043249998 15:0.36353001 16:0.10567 17:0.41168001 18:0.18681 19:0.38868999 20:0.0106 21:0.44523001 22:0.0106 23:-0.15194 24:1 25:0.58304 26:0.25795001 27:0.32861999 28:0.46643001 29:0.21908 30:0.82331997 31:-0.17314 32:0.68198001 33:0 34:1 #
-0.056185562928505239366216983398772 1:0 2:0 3:0 4:0 5:-0.93181998 6:-0.12879001 7:-0.93939 8:1 9:0 10:0 11:0 12:0 13:-1 14:1 15:-1 16:0.84091002 17:-0.22727001 18:0.62120998 19:0 20:0 21:0 22:0 23:-0.28029999 24:1 25:1 26:0.77272999 27:0 28:0 29:0 30:0 31:-0.62879002 32:0.65908998 33:0 34:1 #
1 1:-0.0625 2:0.33333001 3:-0.3125 4:0.58332998 5:-0.083329998 6:0.41666999 7:-0.10064 8:0.44012001 9:-0.1875 10:0.39583001 11:0.1875 12:0.25 13:0.083329998 14:0.33333001 15:-0.22916999 16:0.35416999 17:-0.22916999 18:0.4375 19:0.02083 20:0.54167002 21:0.10417 22:0.29166999 23:0 24:0.47916999 25:-0.0625 26:0.33333001 27:0 28:0.39583001 29:-0.10417 30:0.58332998 31:0.041669998 32:0.4375 33:0 34:1 #
1 1:0.33036 2:1 3:0.25792 4:0.40663001 5:0.25306001 6:0.43432999 7:0.24618 8:0.46167001 9:0.23724 10:0.48838001 11:0.22624999 12:0.51419997 13:0.21325999 14:0.53887999 15:0.41224 16:0.14395 17:0.18151 18:0.58372998 19:0.10976 20:0.78636998 21:0.14285 22:0.62098998 23:0.12131 24:0.63621002 25:0.34081 26:0.087760001 27:0.18761 28:0.57196999 29:0.050310001 30:0.66626 31:0.025280001 32:0.67065001 33:0 34:1 #
-0.97734674621323258669747247040505 1:1 2:1 3:-1 4:0.20614 5:1 6:1 7:-0.0614 8:1 9:-1 10:0.80921 11:1 12:-1 13:-0.4386 14:0.32675001 15:-0.032889999 16:0.14253999 17:-1 18:-0.51534998 19:0.050439999 20:0.01754 21:0.58771998 22:-0.059209999 23:1 24:-0.66886002 25:0.30921 26:0.87718999 27:1 28:1 29:-1 30:0.20833001 31:1 32:0.63815999 33:0 34:1 #
1 1:-1 2:-0.13341001 3:-0.92128003 4:0.32984 5:-0.89674002 6:0.40650001 7:-0.86583 8:0.48135999 9:-0.82867998 10:0.55388999 11:-0.78547001 12:0.62357002 13:0.11053 14:0.90284002 15:-1 16:0.12245 17:-0.62180001 18:0.81050998 19:-0.23433 20:0.87936997 21:-0.31736001 22:0.88485998 23:-0.41382 24:0.95472997 25:0.61053002 26:0.94817001 27:-0.81778997 28:0.86635 29:-0.17263 30:1 31:-0.087140001 32:1 33:0 34:1 #
1 1:0.09719 2:0.57418001 3:0.095339999 4:0.60149997 5:-0.21053 6:0.52631998 7:0.089680001 8:0.65419 9:0.21053 10:0.42105001 11:0.081409998 12:0.70301002 13:0.076310001 14:0.72549999 15:0.05263 16:1 17:0.47367999 18:0.84210998 19:0.057560001 20:0.78315002 21:0.050280001 22:0.79856002 23:0 24:0.68421 25:-0.05263 26:0.68421 27:0.026149999 28:0.83155 29:0.01756 30:0.83780998 31:-0.10526 32:0.47367999 33:0 34:1 #
0.79500936896147156307534942243365 1:-0.76112002 2:0.30445001 3:-1 4:1 5:-1 6:0.81019998 7:-0.77986002 8:0.53776997 9:-0.76903999 10:0.61945999 11:-0.74896002 12:0.70120001 13:-1 14:0.96600997 15:-0.88951999 16:0.76770997 17:-0.79602998 18:1 19:-0.57534999 20:1 21:-0.86401999 22:0.62889999 23:-0.23229 24:1 25:-0.35817999 26:1 27:-0.9745 28:0.89517999 29:-0.73370999 30:0.99150002 31:-0.57224 32:1 33:0 34:1 #
-1 1:-0.18826 2:1 3:0.88428003 4:1 5:-0.66494 6:1 7:0.35924 8:1 9:-0.17012 10:1 11:0.62348998 12:1 13:0.15803 14:0.61830997 15:-1 16:1 17:-1 18:1 19:-0.14767 20:1 21:0.077720001 22:1 23:0.35146999 24:1 25:-0.1209 26:1 27:-0.39895999 28:0.85492003 29:0.2228 30:1 31:-0.86701 32:1 33:0 34:1 #
1 1:0.029589999 2:0.56361002 3:-0.14053001 4:0.59024 5:-0.21154 6:0.53549999 7:-0.066370003 8:0.61009002 9:0.028109999 10:0.65385002 11:-0.18639 12:0.34615001 13:0.069530003 14:0.78697997 15:-0.01479 16:0.65976 17:-0.27811 18:0.78549999 19:0.05178 20:0.73076999 21:0.078400001 22:0.71597999 23:0.087279998 24:0.63462001 25:0.025149999 26:0.85947001 27:0.028109999 28:0.80620998 29:-0.05178 30:0.65679997 31:-0.028109999 32:0.74852002 33:0 34:1 #
-0.070155004587964808759892321177176 1:-1 2:1 3:0 4:0 5:1 6:1 7:-1 8:1 9:-1 10:1 11:-1 12:-1 13:-1 14:1 15:1 16:1 17:1 18:1 19:-1 20:1 21:1 22:1 23:1 24:1 25:-1 26:1 27:-1 28:1 29:0 30:0 31:1 32:1 33:0 34:0 #
-0.44709916810324268343634912525886 1:0 2:0 3:-1 4:1 5:0 6:0 7:-1 8:1 9:0 10:0 11:1 12:1 13:0 14:0 15:0 16:0 17:-1 18:1 19:0.23288 20:1 21:-0.25342 22:1 23:1 24:1 25:0 26:0 27:0 28:0 29:-1 30:1 31:0 32:0 33:0 34:1 #
-1 1:-0.15676001 2:0.28918999 3:-0.25946 4:1 5:0 6:0 7:-0.17568 8:1 9:0 10:0 11:-0.41622001 12:1 13:-0.21081001 14:1 15:0 16:0 17:-0.11351 18:1 19:0.070270002 20:1 21:-0.2 22:1 23:0.072970003 24:0.93243003 25:0 26:0 27:-0.054049999 28:0.18919 29:-0.22702999 30:0.98918998 31:0 32:0 33:0 34:1 #
-1 1:0 2:0 3:0.1286 4:-1 5:0.69401002 6:-1 7:0.88248003 8:-0.34145999 9:0.8071 10:-0.91574001 11:0.23725 12:-0.42572001 13:0.38802999 14:-0.102 15:0.84921998 16:-0.50998002 17:0.95121998 18:-0.02661 19:0.1286 20:0.23725 21:0.53214997 22:-0.024390001 23:0.99557 24:0.38359001 25:1 26:0.39467999 27:0.068740003 28:0.56541002 29:0 30:0 31:0.16851 32:0.79157001 33:0 34:1 #
-1 1:1 2:1 3:0.14677 4:0.38352001 5:0.15436 6:0.43481001 7:0.16019 8:0.48866999 9:0.1639 10:0.54446 11:0.16516 12:0.60137999 13:0.16371 14:0.65850002 15:0.41003001 16:1 17:0.15188999 18:0.76928997 19:0.14137 20:0.82077003 21:0.53640002 22:0.88462001 23:0.11147 24:0.91035998 25:-1 26:0.61745 27:0.071429998 28:0.97544998 29:0.048610002 30:0.99672002 31:0.02461 32:1 33:0 34:1 #
-1 1:1 2:1 3:0.14643 4:0.48927 5:0.081820004 6:0.42273 7:0.14673001 8:0.56981999 9:0.32727 10:0.57273 11:-1 12:0.98636001 13:-0.30000001 14:1 15:0.1 16:0.66817999 17:0.21818 18:0.50454998 19:1 20:0.56818002 21:0.095590003 22:0.81809002 23:-0.16818 24:0.48181999 25:-0.05909 26:0.66364002 27:0.72727001 28:1 29:0.034619998 30:0.89240998 31:-0.050000001 32:0.72727001 33:0 34:1 #
1 1:-0.032260001 2:0.39559001 3:-0.018680001 4:0.70797998 5:0.098470002 6:0.34635001 7:-0.03351 8:0.50369 9:-0.03176 10:0.51731002 11:-0.20883 12:0.28183001 13:0.066210002 14:0.34975001 15:-0.042440001 16:0.42445001 17:-0.22411001 18:0.81664002 19:0.039050002 20:0.55518001 21:-0.047540002 22:0.47367999 23:-0.16638 24:0.52462 25:0.20883 26:0.52631998 27:-0.0050900001 28:0.51783001 29:0.16808 30:0.45331001 31:0.13582 32:0.29201999 33:0 34:1 #
0.85511779428552536774787995454972 1:1 2:1 3:1 4:1 5:0.25 6:1 7:1 8:1 9:1 10:1 11:1 12:1 13:0.92000997 14:1 15:0 16:1 17:1 18:-0.375 19:0.58986002 20:1 21:0.48980999 22:1 23:0.39495 24:1 25:-0.125 26:1 27:0.22108001 28:1 29:0.14211001 30:1 31:0.068429999 32:1 33:0 34:1 #
-0.38504924176198618290811737097101 1:-1 2:1 3:-1 4:1 5:-1 6:1 7:1 8:1 9:0.85714 10:0.53750002 11:1 12:-0.84285998 13:-0.03393 14:1 15:-1 16:1 17:0.13839 18:1 19:-1 20:1 21:-0.37678999 22:1 23:0.96161002 24:1 25:-0.23393001 26:1 27:-1 28:1 29:0.82857001 30:1 31:-1 32:-0.64286 33:0 34:1 #
0.60158274320647298072373132526991 1:-0.47898 2:-0.07457 3:-0.54074001 4:-0.0184 5:-0.54927999 6:-0.071620002 7:-0.59588999 8:0.093120001 9:-0.63600999 10:0.14749999 11:-0.59691 12:0.33509001 13:-0.54171997 14:0.40505999 15:-0.72109002 16:0.27070001 17:-0.70728999 18:0.37254 19:-0.49967 20:0.63338 21:-0.49639001 22:0.70301998 23:-0.28909001 24:0.79271001 25:-0.27070001 26:0.81702 27:-0.22601999 28:0.87023997 29:-0.17674001 30:0.96419001 31:-0.19448 32:0.92246997 33:0 34:1 #
-0.12335186767920550132693335854128 1:-0.29091001 2:0.29091001 3:-0.36364001 4:0.12727 5:-0.05455 6:0.34545001 7:-0.070270002 8:0.41097999 9:0.16364001 10:0.32727 11:0.16364001 12:0.61817998 13:0.49090999 14:0.12727 15:0.05455 16:0.36364001 17:-0.01818 18:0.2 19:-0.41817999 20:0.36364001 21:0.29091001 22:0.29091001 23:-0.05455 24:0.29091001 25:-0.036359999 26:0.34545001 27:-0.67273003 28:0.18182001 29:-0.14545 30:0.58182001 31:-0.12727 32:0.43636 33:0 34:1 #
1 1:-0.27201 2:0.01336 3:-0.1895 4:-0.047169998 5:-0.21129 6:-0.02612 7:-0.2321 8:-0.00046000001 9:-0.25123999 10:0.03004 11:-0.26795 12:0.065559998 13:-0.31525001 14:0.095129997 15:-0.29052001 16:0.15196 17:-0.29440999 18:0.20269001 19:-0.18946999 20:0.034589998 21:-0.31997001 22:0.28931001 23:-0.26339 24:0.38095999 25:0.04403 26:0.29796001 27:-0.21383999 28:-0.13129 29:-0.14380001 30:0.58263999 31:-0.078960001 32:0.64946997 33:0 34:1 #
-1 1:0 2:0 3:-1 4:1 5:1 6:1 7:-1 8:1 9:0 10:0 11:-0.27778 12:1 13:0 14:0 15:0 16:0 17:-1 18:1 19:1 20:1 21:-1 22:1 23:1 24:1 25:0 26:0 27:0 28:0 29:-1 30:1 31:1 32:1 33:0 34:1 #
1 1:-0.44738999 2:1 3:-0.40740001 4:1 5:-0.36930999 6:1 7:-0.33304 8:1 9:-0.29852 10:1 11:-0.26571 12:1 13:-0.23452 14:1 15:-0.20491 16:1 17:-0.17681 18:1 19:-0.15017 20:1 21:-0.12493 22:1 23:-0.10104 24:1 25:0.66942 26:0.90082997 27:-0.87052 28:0.98898 29:-0.03692 30:1 31:-0.49311 32:0.94489998 33:0 34:1 #
1 1:0.0075500002 2:0.73207998 3:0.03774 4:0.86414999 5:0.022639999 6:0.66791999 7:-0.058010001 8:0.73886001 9:-0.15094 10:0.84906 11:-0.14717001 12:0.73961997 13:-0.23774 14:0.75849003 15:-0.07925 16:0.61887002 17:0.086790003 18:0.76981002 19:-0.022639999 20:0.72074997 21:-0.13962001 22:0.66791999 23:0.01132 24:0.64528 25:-0.045279998 26:0.66038001 27:0.03774 28:0.77358001 29:-0.10566 30:0.76981002 31:0.045279998 32:0.67546999 33:0 34:1 #
-0.00791448317627890286785063977959 1:0 2:0 3:1 4:1 5:-1 6:-1 7:-1 8:1 9:-1 10:-1 11:1 12:-1 13:-1 14:1 15:-1 16:0.087499999 17:-1 18:-1 19:-1 20:0.17917 21:1 22:1 23:1 24:-1 25:0 26:0 27:-0.14375 28:1 29:1 30:1 31:-1 32:-1 33:0 34:1 #
