SVM-light Version V6.02
0 # kernel type
3 # kernel parameter -d 
1 # kernel parameter -g 
1 # kernel parameter -s 
1 # kernel parameter -r 
empty# kernel parameter -u 
34 # highest feature index 
234 # number of training documents 
149 # number of support vectors plus 1 
1.204317 # threshold b, each following line is a SV (starting with alpha*y)
-0.089631707128411355900432511134568 1:-0.065569997 2:0.49180001 3:-0.44262001 4:0.27869001 5:-0.032790001 6:0.32787001 7:-0.20325001 8:0.52385002 9:-0.34426001 10:0.31147999 11:-0.29508001 12:1 13:0.032790001 14:0.67212999 15:-0.17175999 16:0.65557998 17:-0.14754 18:0.19672 19:-0.16393 20:0.68852001 21:0 22:0.72131002 23:-0.032790001 24:0.85246003 25:0.01639 26:0.65574002 27:-0.01639 28:0.57376999 29:0.049180001 30:1 31:-0.14754 32:1 33:0 34:1 #
0.089631707128411355900432511134568 1:-0.46603 2:0.18353 3:-0.51328999 4:0.15657 5:-0.39142999 6:0.12777001 7:-0.48390001 8:0.29207999 9:-0.52142 10:0.23965999 11:-0.32681 12:0.53175998 13:-0.39328 14:0.61040998 15:-0.55058998 16:0.40472999 17:-0.61189002 18:0.47194001 19:-0.36078 20:0.71491998 21:-0.30539 22:0.73855001 23:-0.24077 24:0.70643002 25:-0.23486 26:0.89919001 27:-0.30133 28:0.80243999 29:0.0036899999 30:0.99814999 31:0.24077 32:1 33:0 34:1 #
-0.024084659923133040076992372746645 1:-0.29091001 2:0.29091001 3:-0.36364001 4:0.12727 5:-0.05455 6:0.34545001 7:-0.070270002 8:0.41097999 9:0.16364001 10:0.32727 11:0.16364001 12:0.61817998 13:0.49090999 14:0.12727 15:0.05455 16:0.36364001 17:-0.01818 18:0.2 19:-0.41817999 20:0.36364001 21:0.29091001 22:0.29091001 23:-0.05455 24:0.29091001 25:-0.036359999 26:0.34545001 27:-0.67273003 28:0.18182001 29:-0.14545 30:0.58182001 31:-0.12727 32:0.43636 33:0 34:1 #
-0.089631707128411355900432511134568 1:0.0275 2:0.72837001 3:0.11066 4:0.90408999 5:-0.01073 6:0.72434998 7:0.025520001 8:0.82270998 9:-0.01207 10:0.71763998 11:0 12:1 13:-0.080480002 14:0.81221002 15:0.026830001 16:0.71025997 17:0.037560001 18:0.91482002 19:0.10195 20:0.96109998 21:-0.0046899999 22:0.97921002 23:0.02482 24:0.95841998 25:-0.091880001 26:0.74313003 27:0.12876999 28:0.75854999 29:0.097920001 30:0.98993999 31:0.025490001 32:0.74915999 33:0 34:1 #
-0.089631707128411355900432511134568 1:0.01525 2:0.63887 3:0.01484 4:0.66298002 5:0.0084899999 6:0.66161001 7:0.01375 8:0.70885998 9:-0.00303 10:0.77138001 11:0.01232 12:0.75071001 13:0.01148 14:0.76978999 15:0.03881 16:0.76530999 17:-0.069739997 18:0.82776999 19:0.0085399998 20:0.81814998 21:0.0074399998 22:0.83095998 23:0.12068 24:0.81503999 25:0.02304 26:0.79988003 27:0.0038399999 28:0.85821003 29:0.0025800001 30:0.86334997 31:0.01092 32:0.76046002 33:0 34:1 #
0.089631707128411355900432511134568 1:0.17077 2:0.58840001 3:0.16464999 4:0.60715002 5:0.02727 6:0.67273003 7:0.15087999 8:0.64581001 9:0.22727001 10:0.74545002 11:0.13493 12:0.68603998 13:0.12608001 14:0.70674002 15:0.12727 16:0.68181998 17:0.25455001 18:0.62726998 19:0.095789999 20:0.77117997 21:0.084360003 22:0.79342997 23:0.045449998 24:0.69090998 25:0 26:0.80000001 27:0.04572 28:0.86249 29:0.03131 30:0.88626999 31:0 32:0.98181999 33:0 34:1 #
0.089631707128411355900432511134568 1:-0.44222 2:1 3:-0.15609001 4:1 5:-0.14667 6:0.82222003 7:-0.14162 8:1 9:0.035560001 10:0.84443998 11:-0.18667001 12:1 13:-0.11526 14:1 15:-0.037780002 16:0.88 17:0.05333 18:0.86888999 19:-0.2 20:1 21:-0.072870001 22:1 23:-0.064439997 24:0.83556002 25:0.0022199999 26:0.87778002 27:-0.068889998 28:1 29:-0.024940001 30:1 31:-0.071110003 32:0.86888999 33:0 34:1 #
0.089631707128411355900432511134568 1:-0.11321 2:0.43395999 3:0.43395999 4:1 5:-1 6:0.94340003 7:-0.00128 8:0.92192 9:0.79245001 10:1 11:-0.00112 12:0.95190001 13:0.075470001 14:0.52829999 15:0 16:0.52829999 17:-0.00085000001 18:0.98878002 19:-0.056600001 20:0.62264001 21:0.075470001 22:0.45282999 23:-0.00053999998 24:1 25:0 26:0.62264001 27:-0.056600001 28:0.49057001 29:0.75471997 30:1 31:-0.92453003 32:1 33:0 34:1 #
0.089631707128411355900432511134568 1:-0.0625 2:0.33333001 3:-0.3125 4:0.58332998 5:-0.083329998 6:0.41666999 7:-0.10064 8:0.44012001 9:-0.1875 10:0.39583001 11:0.1875 12:0.25 13:0.083329998 14:0.33333001 15:-0.22916999 16:0.35416999 17:-0.22916999 18:0.4375 19:0.02083 20:0.54167002 21:0.10417 22:0.29166999 23:0 24:0.47916999 25:-0.0625 26:0.33333001 27:0 28:0.39583001 29:-0.10417 30:0.58332998 31:0.041669998 32:0.4375 33:0 34:1 #
0.089631707128411355900432511134568 1:0.37191001 2:0.18632001 3:0.3962 4:0.23405001 5:1 6:0.90329999 7:0.43221 8:0.34373999 9:0.44198999 10:0.40439999 11:0.44510999 12:0.46772999 13:0.44088 14:0.53258002 15:0.59862 16:0.95472002 17:0.40843999 18:0.66145003 19:0.37988001 20:0.72254002 21:0.34327999 22:0.77937001 23:0.61320001 24:0.90022999 25:-0.49961999 26:0.84881002 27:0.19152001 28:0.90995997 29:0.1303 30:0.93614 31:0.065949999 32:0.95217001 33:0 34:1 #
-0.089631707128411355900432511134568 1:0.48087001 2:0.13934 3:0.24590001 4:0.55328 5:0.077869996 6:0.87568003 7:0.17088 8:0.68655998 9:0.069669999 10:0.60655999 11:0.0068299999 12:1 13:-0.44944999 14:0.47541001 15:0.11339 16:0.78552002 17:0.31830999 18:0.76775998 19:0.58743 20:0.39208001 21:-0.48907 22:0.40164 23:-0.14071 24:0.65164 25:-0.0027300001 26:0.75682998 27:0.50137001 28:0.49590001 29:0.06831 30:0.97403997 31:-0.01366 32:0.66667002 33:0 34:1 #
-0.089631707128411355900432511134568 1:0.053939998 2:-0.64055997 3:0.13666999 4:-0.65710002 5:0.27338001 6:-0.64511001 7:0.40972 8:-0.60328001 9:0.53886002 10:-0.53140002 11:0.65385002 12:-0.43087 13:0.76192999 14:-0.35995999 15:0.77853 16:-0.1639 17:0.85210001 18:0.0039599999 19:0.83557999 20:0.15663999 21:0.81795001 22:0.361 23:0.74922001 24:0.50375998 25:0.69865 26:0.60425001 27:0.45747 28:0.72873002 29:0.35543001 30:0.86089998 31:0.18198 32:0.91767001 33:0 34:1 #
-0.089631707128411355900432511134568 1:0.26091999 2:-0.81209999 3:0.42488 4:-0.75321001 5:0.52564001 6:-0.67929 7:0.66334999 8:-0.58563 9:0.76481998 10:-0.46533999 11:0.82492 12:-0.33023 13:0.89383 14:-0.18880001 15:0.93109 16:-0.0070099998 17:0.93428999 18:0.17959 19:0.90665001 20:0.30458999 21:0.83613998 22:0.48697999 23:0.73838001 24:0.59214997 25:0.63841999 26:0.73677999 27:0.49959999 28:0.85096002 29:0.33142999 30:0.90946001 31:0.17498 32:0.94630998 33:0 34:1 #
-0.089631707128411355900432511134568 1:-0.22034 2:0.6742 3:-0.31262001 4:0.53860998 5:-0.020719999 6:0.52731001 7:-0.16836999 8:0.61444002 9:-0.33144999 10:0.56120998 11:0.062150002 12:0.33333001 13:-0.0037700001 14:0.70244998 15:-0.14313 16:0.81544 17:-0.24482 18:0.51411998 19:-0.13748001 20:0.80791003 21:-0.045200001 22:0.6742 23:0.02825 24:0.50471002 25:0.02448 26:0.80979002 27:-0.13936 28:0.85122001 29:-0.13936 30:0.69867998 31:0.14689 32:0.59886998 33:0 34:1 #
-0.089631707128411355900432511134568 1:0.10067 2:1 3:0.10067 4:1 5:0.08501 6:0.99105 7:0.087630004 8:0.99989003 9:0.10067 10:1 11:0.073830001 12:0.95749003 13:0.093960002 14:0.99776 15:0.03579 16:1 17:0.03356 18:0.98881 19:0.064879999 20:1 21:0.02908 22:0.95973003 23:0.044739999 24:0.97763002 25:0.062639996 26:1 27:-0.0022400001 28:1 29:0.015659999 30:1 31:-0.01342 32:1 33:0 34:1 #
0.089631707128411355900432511134568 1:0.12556 2:0.42151999 3:-0.094609998 4:0.47029001 5:-0.29837999 6:0.43226999 7:-0.48392001 8:0.30406001 9:-0.61054999 10:0.095619999 11:-0.64337999 12:-0.16449 13:-0.55605 14:-0.46636999 15:-0.30941999 16:-0.62779999 17:-0.082050003 18:-0.78939998 19:0.26905999 20:-0.82959998 21:0.56502002 22:-0.64573997 23:0.80440998 24:-0.39596999 25:0.90135002 26:-0.067259997 27:0.87892002 28:0.29148 29:0.69431001 30:0.65925997 31:0.38137999 32:0.88804001 33:0 34:1 #
0.089631707128411355900432511134568 1:0.16644999 2:0.51459998 3:-0.059379999 4:0.56239003 5:-0.29897001 6:0.52573001 7:-0.51568002 8:0.38543999 9:-0.66421002 10:0.15552001 11:-0.70762002 12:-0.13012999 13:-0.62861001 14:-0.38334 15:-0.38102001 16:-0.67474002 17:-0.12538999 18:-0.81136 19:0.22735 20:-0.81049001 21:0.51560003 22:-0.70560998 23:0.79346001 24:-0.42173001 25:0.90740001 26:-0.039329998 27:0.86624998 28:0.31347001 29:0.69212002 30:0.64099002 31:0.38027 32:0.87048 33:0 34:1 #
0.089631707128411355900432511134568 1:0.042330001 2:0.26719999 3:-0.24338999 4:0.24868 5:-0.21693 6:0.15873 7:-0.31738999 8:0.035739999 9:0.0026499999 10:-0.23280001 11:-0.38095 12:-0.14815 13:-0.1455 14:-0.14815 15:-0.1164 16:-0.5 17:0.068779998 18:-0.51586998 19:0.32539999 20:-0.4127 21:0.31217 22:-0.34127 23:0.53968 24:-0.021159999 25:0.49471 26:0.018519999 27:0.47619 28:0.25661001 29:0.33598 30:0.42328 31:0.22751001 32:0.4709 33:0 34:1 #
-0.040658136811274551980499580849937 1:-0.81686002 2:0.00194 3:-0.82126999 4:0.25391999 5:-0.86840999 6:-0.029789999 7:-0.81875998 8:-0.3161 9:-0.67605001 10:-0.57242 11:-0.45478001 12:-0.76901001 13:-0.41084999 14:-0.78973001 15:-0.0077499999 16:-1 17:0.41194999 18:-0.81422001 19:0.32558 20:-0.69766998 21:0.71995997 22:-0.62402999 23:0.92118001 24:-0.092380002 25:1 26:0.05717 27:0.58526999 28:0.34108999 29:0.57815999 30:0.73232001 31:0.30634001 32:0.88240999 33:0 34:1 #
0.089631707128411355900432511134568 1:-0.070270002 2:1 3:0.02703 4:1 5:-0.032430001 6:1 7:0.01251 8:0.98556 9:0.09189 10:0.97838002 11:0.04324 12:1 13:0.064860001 14:1 15:-0.0054100002 16:0.97838002 17:0.09189 18:0.95134997 19:-0.064860001 20:1 21:0.086489998 22:0.98918998 23:-0.032430001 24:0.98918998 25:-0.01622 26:0.95134997 27:-0.064860001 28:1 29:-0.02703 30:1 31:-0.01081 32:1 33:0 34:1 #
0.089631707128411355900432511134568 1:-0.56617999 2:-0.28676 3:-0.50735003 4:-0.44117999 5:-0.42647001 6:-0.55146998 7:-0.24131 8:-0.67925 9:-0.125 10:-0.74264997 11:0.088239998 12:-0.86028999 13:0.38235 14:-0.73528999 15:0.47793999 16:-0.5 17:0.67646998 18:-0.375 19:0.82353002 20:-0.20588 21:0.86028999 22:-0.022059999 23:0.88971001 24:0.19118001 25:0.77941 26:0.45587999 27:0.67646998 28:0.74264997 29:0.375 30:0.91175997 31:0.38235 32:0.89705998 33:0 34:1 #
-0.089631707128411355900432511134568 1:-0.33588001 2:-0.30153 3:0.16794001 4:-0.16794001 5:0.26335999 6:-0.038169999 7:0.31092 8:0.039129999 9:0.24692 10:0.21645001 11:-0.16031 12:0.28626001 13:-0.11953 14:0.34011999 15:-0.17557 16:0.18702 17:-0.39695001 18:-0.10305 19:-0.30533999 20:-0.16412 21:0.091600001 22:-0.4542 23:0.061069999 24:-0.41984999 25:-0.18321 26:-0.18321 27:0.48866001 28:-0.10557 29:0.25191 30:0.041979998 31:0.057250001 32:0.19465999 33:0 34:1 #
0.089631707128411355900432511134568 1:-0.11717 2:0.96522999 3:-0.13722 4:1 5:0.038849998 6:0.91165 7:-0.04597 8:0.96237999 9:-0.01253 10:1 11:0.092419997 12:0.99624002 13:0.037280001 14:0.97399998 15:-0.15633 16:0.83583999 17:-0.18954 18:0.95801997 19:0.066100001 20:1 21:-0.068609998 22:0.98119998 23:0.2782 24:1 25:0.15414 26:1 27:-0.10401 28:1 29:-0.78509003 30:1 31:0.23058 32:1 33:0 34:1 #
-0.089631707128411355900432511134568 1:-0.066679999 2:0.98970997 3:-0.064970002 4:0.99057001 5:-0.063040003 6:0.99400002 7:-0.055270001 8:0.99842 9:-0.049309999 10:1 11:-0.050390001 12:1 13:-0.03881 14:1 15:-0.03452 16:0.99313998 17:-0.03238 18:0.99528003 19:-0.03087 20:0.99827999 21:-0.02187 22:1 23:-0.02809 24:1 25:-0.01565 26:1 27:-0.01565 28:1 29:-0.00343 30:1 31:-0.01179 32:1 33:0 34:1 #
-0.089631707128411355900432511134568 1:0.027620001 2:0.98673999 3:0.020989999 4:0.98563999 5:0.01547 6:0.97900999 7:0.016000001 8:0.98032999 9:-0.0066300002 10:0.97127002 11:0.020989999 12:0.98122001 13:0.0066300002 14:0.98010999 15:0.01657 16:0.97900999 17:0.0077300002 18:0.97569001 19:0.0088400003 20:1 21:0.0232 22:0.98343003 23:-0.0022100001 24:0.99448001 25:-0.01436 26:0.99448001 27:0.0232 28:1 29:0.01105 30:1 31:0.01105 32:1 33:0 34:1 #
-0.089631707128411355900432511134568 1:-0.18799999 2:0.96777999 3:-0.15755001 4:0.97131997 5:-0.14916 6:0.93469 7:-0.12912001 8:0.96653003 9:-0.083410002 10:0.97351998 11:-0.089139998 12:0.95278001 13:-0.052519999 14:0.99294001 15:-0.12224 16:0.97263998 17:-0.095320001 18:0.97395998 19:-0.071489997 20:0.99382001 21:-0.074579999 22:0.98500001 23:-0.026040001 24:0.95278001 25:0.01456 26:0.98720002 27:-0.076350003 28:1 29:-0.04104 30:0.98057997 31:-0.02736 32:0.98455 33:0 34:1 #
0.089631707128411355900432511134568 1:-0.2449 2:-0.26530999 3:0 4:-0.34694001 5:0.18367 6:-0.59184003 7:0.14895 8:-0.46579 9:0.22449 10:-0.61224002 11:0.32653001 12:-0.28571001 13:0.44898 14:-0.28571001 15:0.55102003 16:-0.20408 17:0.55102003 18:-0.061220001 19:0.51020002 20:0 21:0.55102003 22:0.12245 23:0.59184003 24:0.30612001 25:0.44898 26:0.46939 27:0.20408 28:0.40816 29:0.2449 30:0.46939 31:0.20408 32:0.34694001 33:0 34:1 #
0.089631707128411355900432511134568 1:0.55835003 2:-0.47419 3:0.64363003 4:-0.38532001 5:0.71454 6:-0.33169001 7:0.78004003 8:-0.20995 9:0.7978 10:-0.07361 11:0.88868999 12:0.0049399999 13:0.85614997 14:0.13711999 15:0.85952002 16:0.25538999 17:0.82742 18:0.41628999 19:0.73585999 20:0.50830001 21:0.75 22:0.65259999 23:0.59942001 24:0.72351998 25:0.47126999 26:0.79039001 27:0.38778999 28:0.85705 29:0.25358999 30:0.93716002 31:0.13644999 32:0.93537003 33:0 34:1 #
0.089631707128411355900432511134568 1:0.31154001 2:-0.23846 3:0.23896 4:-0.26633999 5:0.29541001 6:-0.23831999 7:0.34976 8:-0.19939999 9:0.40006 10:-0.14943001 11:0.44424 12:-0.08856 13:0.42885 14:-0.034619998 15:0.57499999 16:-0.098080002 17:0.51876998 18:0.15215001 19:0.37114999 20:0.25192001 21:0.57308 22:0.25 23:0.46439001 24:0.44793001 25:0.45576999 26:0.36923 27:0.19038001 28:0.64614999 29:0.24323 30:0.73061001 31:0.13068999 32:0.80627 33:0 34:1 #
0.089631707128411355900432511134568 1:-0.89621001 2:0.29221001 3:-0.88845998 4:0.24117 5:-0.83893001 6:0.37941 7:-0.85668999 8:0.48756999 9:-0.96296 10:0.67032999 11:-0.74785 12:0.58828998 13:-0.78315997 14:0.82450002 15:-0.63543999 16:0.68131 17:-0.65223998 18:0.73084003 19:-0.4817 20:0.91904002 21:-0.47264999 22:0.85788 23:-0.34281 24:0.96662003 25:-0.33074999 26:1 27:-0.29802001 28:0.99246001 29:-0.11326 30:1 31:-0.081830002 32:1 33:0 34:1 #
0.089631707128411355900432511134568 1:-0.050000001 2:0.41666999 3:0.033330001 4:0.46667001 5:0.033330001 6:0.40000001 7:0.054389998 8:0.46213999 9:0.13333 10:0.25 11:0 12:0.69999999 13:0.2 14:0.31667 15:-0.01667 16:0.41666999 17:0.2 18:0.53333002 19:-0.066670001 20:0.69999999 21:0.083329998 22:0.71666998 23:0.01667 24:0.56667 25:0.11667 26:0.36667001 27:-0.13333 28:0.33333001 29:0 30:0.53333002 31:-0.1 32:0.26666999 33:0 34:1 #
-0.055705080046492612411146438944343 1:0 2:0 3:1 4:0 5:-1 6:1 7:-0.2 8:-1 9:1 10:1 11:-1 12:-0.60000002 13:-1 14:1 15:-1 16:-1 17:-1 18:-1 19:0 20:0 21:-1 22:1 23:0 24:0 25:-1 26:-0.85000002 27:0 28:0 29:0 30:0 31:0 32:0 33:0 34:1 #
-0.033296463676818294219472704753571 1:0 2:0 3:-1 4:1 5:0 6:0 7:-1 8:-1 9:-1 10:1 11:0 12:0 13:-1 14:1 15:-1 16:1 17:-1 18:-1 19:-0.3125 20:-1 21:-1 22:-1 23:0 24:0 25:-1 26:-1 27:1 28:1 29:1 30:-1 31:0 32:0 33:0 34:0 #
-0.031527977772075874152157837215782 1:1 2:-1 3:-1 4:-1 5:0 6:0 7:-1 8:1 9:0.4375 10:1 11:1 12:-1 13:-1 14:-1 15:0 16:0 17:0 18:0 19:-1 20:1 21:1 22:1 23:1 24:-1 25:0 26:0 27:1 28:-1 29:-1 30:-1 31:0 32:0 33:0 34:1 #
-0.089631707128411355900432511134568 1:-0.046909999 2:0.51358002 3:-0.071599998 4:0.61234999 5:0.022220001 6:0.76542997 7:-0.02451 8:0.63773 9:-0.1284 10:0.66667002 11:0.081479996 12:0.60987997 13:0.0098799998 14:0.48642001 15:-0.10864 16:0.73826998 17:-0.17531 18:0.78272003 19:0.096299998 20:0.62469 21:0.049380001 22:0.59753001 23:0.11852 24:0.79012001 25:-0.0049399999 26:0.60987997 27:0.081479996 28:0.65184999 29:0.034570001 30:0.77037001 31:0.1037 32:0.68147999 33:0 34:1 #
-0.089631707128411355900432511134568 1:0.74356002 2:-0.18533 3:0.76763999 4:0.20548999 5:0.59070998 6:0.45185 7:0.23713 8:0.74757999 9:-0.18645 10:0.74299997 11:-0.52127999 12:0.56663001 13:-0.76315999 14:0.23292001 15:-0.86001998 16:-0.047589999 17:-0.71724999 18:-0.47031999 19:-0.28723001 20:-0.82810998 21:0.071110003 22:-0.84210998 23:0.52407998 24:-0.68252999 25:0.82138997 26:-0.32027 27:0.85105997 28:0.05319 29:0.74804002 30:0.44681001 31:0.43617001 32:0.65845001 33:0 34:1 #
0.089631707128411355900432511134568 1:0.23529001 2:1 3:0.35293999 4:1 5:0.058820002 6:1 7:0.20225 8:1 9:-0.11765 10:1 11:0.41176 12:1 13:0.35293999 14:1 15:-0.11765 16:1 17:-0.058820002 18:1 19:0.47059 20:1 21:0.11765 22:1 23:0.23529001 24:1 25:0.058820002 26:1 27:0.41176 28:1 29:0.23529001 30:1 31:0.11765 32:1 33:0 34:1 #
0.089631707128411355900432511134568 1:0.46571001 2:0.11573 3:0.49123999 4:0.14312001 5:0.53447998 6:0.22307 7:0.54214001 8:0.26978001 9:0.55273998 10:0.33340001 11:0.55684 12:0.42546001 13:0.54211998 14:0.48435 15:0.52179998 16:0.53391999 17:0.51752001 18:0.60101002 19:0.48359999 20:0.66586 21:0.40551999 22:0.76221001 23:0.40198001 24:0.80619001 25:0.36526 26:0.83674997 27:0.19791 28:0.86097997 29:0.15765999 30:0.89266002 31:0.04174 32:0.92657 33:0 34:1 #
-0.027455167949783011727138415380978 1:0 2:0 3:1 4:-0.94375002 5:1 6:1 7:1 8:1 9:1 10:1 11:1 12:0.3125 13:1 14:1 15:1 16:1 17:-1 18:1 19:0 20:0 21:1 22:1 23:0.03125 24:0.025 25:1 26:1 27:-1 28:0.625 29:0.51249999 30:1 31:1 32:1 33:0 34:1 #
-0.089631707128411355900432511134568 1:0.099469997 2:0.98934001 3:0.062169999 4:0.99111998 5:0.081710003 6:0.94849002 7:0.064769998 8:0.97539997 9:0.035519999 10:0.98400998 11:0.055059999 12:0.94493997 13:0.047959998 14:0.97158003 15:0.056839999 16:0.98579001 17:0.02131 18:0.97869003 19:0.037300002 20:1 21:0.035519999 22:0.97158003 23:0.023089999 24:0.95736998 25:0.01599 26:0.99290001 27:0.019540001 28:1 29:0.019540001 30:0.98579001 31:0.0071 32:0.97513002 33:0 34:1 #
-0.089631707128411355900432511134568 1:0.086159997 2:0.97246999 3:0.081260003 4:0.98189998 5:0.080880001 6:0.95700997 7:0.072549999 8:0.96709001 9:0.081069998 10:0.94155002 11:0.062410001 12:1 13:0.055240002 14:0.97737998 15:0.052790001 16:0.93551999 17:0.057130001 18:0.93928999 19:0.02338 20:0.99169999 21:0.03073 22:0.97887999 23:0.021299999 24:0.977 25:0.023940001 26:0.94721001 27:-0.00075000001 28:0.98982 29:0 30:1 31:0.00075000001 32:0.98001999 33:0 34:1 #
0.089631707128411355900432511134568 1:0.64933002 2:-0.11215 3:0.66315001 4:0.19667 5:0.58310002 6:0.37830001 7:0.21343 8:0.71697998 9:-0.23323999 10:0.77814001 11:-0.35229999 12:0.64648998 13:-0.80496001 14:0.28444001 15:-0.86062998 16:-0.1926 17:-0.55261999 18:-0.66030002 19:-0.31044 20:-0.85900003 21:0.10768 22:-0.93092 23:0.4998 24:-0.76229 25:0.88744003 26:-0.42625001 27:0.98903 28:0.088579997 29:0.76432002 30:0.38887 31:0.39252001 32:0.85209 33:0 34:1 #
0.089631707128411355900432511134568 1:0.57551998 2:-0.067390002 3:0.56572998 4:0.25974 5:0.39761999 6:0.52798003 7:0.10484 8:0.69097 9:-0.24843 10:0.69274002 11:-0.57429999 12:0.51556998 13:-0.78698999 14:0.18822999 15:-0.82880998 16:-0.24011999 17:-0.63341999 18:-0.59382999 19:-0.24942 20:-0.82416999 21:0.16731 22:-0.92098999 23:0.58226001 24:-0.73939002 25:0.87915999 26:-0.38033 27:0.95275003 28:0.1038 29:0.82160997 30:0.53944999 31:0.46972001 32:0.87032002 33:0 34:1 #
-0.089631707128411355900432511134568 1:0.79443997 2:-0.039829999 3:0.70011002 4:0.37542 5:0.49079001 6:0.66592002 7:0.087180004 8:0.83007997 9:-0.27733999 10:0.79143 11:-0.72454 12:0.51108998 13:-0.89064002 14:0.12439 15:-0.87787002 16:-0.19354001 17:-0.61894 18:-0.59714001 19:-0.24164 20:-0.84442002 21:0.21909 22:-0.86622 23:0.59564 24:-0.70086002 25:0.83578002 26:-0.33221 27:0.89402002 28:0.12326 29:0.78579003 30:0.54040003 31:0.39120999 32:0.83427 33:0 34:1 #
-0.089631707128411355900432511134568 1:0.13297001 2:0.42805001 3:-0.30057001 4:0.36585999 5:-0.43478 6:0.24321 7:-0.51924998 8:0.07158 9:-0.53619999 10:-0.12897 11:-0.47591999 12:-0.33197001 13:-0.060109999 14:-0.81055999 15:-0.061930001 16:-0.47358999 17:0.10591 18:-0.66750002 19:0.28415 20:-0.57376999 21:0.48816001 22:-0.25137001 23:0.75334001 24:-0.22837999 25:0.80510002 26:-0.036430001 27:0.94353002 28:0.43898001 29:0.62233001 30:0.67333001 31:0.35157001 32:0.89835 33:0 34:1 #
-0.089631707128411355900432511134568 1:0.57656002 2:0.34749001 3:0.38914999 4:0.58137 5:0.095990002 6:0.72478002 7:-0.24433 8:0.72147 9:-0.55909997 10:0.55984002 11:-0.77569997 12:0.26383999 13:-0.82217002 14:-0.10237 15:-0.73285002 16:-0.46950001 17:-0.44707 18:-0.77355999 19:-0.053380001 20:-0.92383999 21:0.33651999 22:-0.86443001 23:0.71257001 24:-0.62526 25:0.92544001 26:-0.24102999 27:0.94537002 28:0.19672 29:0.77654999 30:0.59573001 31:0.43491 32:0.88178998 33:0 34:1 #
0.089631707128411355900432511134568 1:-0.57037002 2:1 3:-0.27105001 4:0.87492001 5:0.020369999 6:0.78889 7:-0.24549 8:0.92148 9:-0.26481 10:0.69630003 11:0.22036999 12:1 13:-0.19938 14:0.98215002 15:-0.05926 16:0.82222003 17:0.018519999 18:0.49259001 19:-0.83519 20:1 21:-0.12581 22:1 23:-0.42778 24:0.45556 25:0.061110001 26:0.80000001 27:-0.85741001 28:1 29:-0.29629999 30:1 31:-0.077780001 32:0.76296002 33:0 34:1 #
0.089631707128411355900432511134568 1:-0.14725 2:0.85841 3:-0.10194 4:0.78316998 5:0.093850002 6:0.98544002 7:-0.023019999 8:0.87292999 9:-0.02589 10:0.84547001 11:-0.03641 12:0.75081003 13:0.26133001 14:0.84871 15:-0.14482 16:0.87379003 17:-0.25323999 18:0.84627998 19:0.050969999 20:0.91586 21:0.081720002 22:0.99676001 23:0.090609998 24:0.96196997 25:0.16828001 26:0.93123001 27:-0.40129 28:0.92313999 29:0.43204001 30:0.60760999 31:-0.0019 32:0.93668997 33:0 34:1 #
0.089631707128411355900432511134568 1:-0.057399999 2:1 3:-0.1875 4:1 5:0.079080001 6:0.75638002 7:-0.0039400002 8:1 9:-0.14541 10:1 11:0.30803999 12:0.90306002 13:0.00191 14:1 15:0.077169999 16:0.95662999 17:-0.13074 18:1 19:0.024870001 20:0.98214 21:0.021050001 22:0.99744999 23:0.20663001 24:0.70217001 25:-0.073980004 26:0.98150998 27:-0.076530002 28:1 29:-0.16964 30:0.80804002 31:0.38264999 32:0.79847002 33:0 34:1 #
0.089631707128411355900432511134568 1:0.69409001 2:-0.00422 3:0.62447 4:0.31435001 5:0.42827001 6:0.64134997 7:0.079329997 8:0.77937001 9:-0.28902999 10:0.74895 11:-0.66878003 12:0.51476997 13:-0.86497998 14:0.16245 15:-0.85654002 16:-0.25105 17:-0.65612 18:-0.62869 19:-0.25527 20:-0.86708999 21:0.19408999 22:-0.93882 23:0.61181003 24:-0.72363001 25:0.88186002 26:-0.37764001 27:0.9346 28:0.099160001 29:0.76160002 30:0.5 31:0.4346 32:0.84176999 33:0 34:1 #
0.089631707128411355900432511134568 1:-0.059799999 2:0.50375998 3:-0.22535001 4:0.46059 5:-0.41901001 6:0.36752 7:-0.56419998 8:0.16085 9:-0.64792001 10:-0.041189998 11:-0.55089003 12:-0.30851001 13:-0.44 14:-0.52474999 15:-0.19525 16:-0.65425998 17:0.072080001 18:-0.66455001 19:0.41743001 20:-0.75880998 21:0.56079 22:-0.47644001 23:0.84474999 24:-0.24871001 25:0.89108998 26:0.01267 27:0.82454997 28:0.47564 29:0.67247999 30:0.72553998 31:0.28713 32:0.94652998 33:0 34:1 #
0.089631707128411355900432511134568 1:0.0080899997 2:0.95837998 3:-0.0341 4:0.95433998 5:0.01908 6:0.97399002 7:-0.01647 8:0.96214998 9:-0.044509999 10:0.97052002 11:-0.023700001 12:0.93814999 13:-0.049710002 14:0.93584001 15:0.01792 16:0.99769002 17:-0.026590001 18:0.99479997 19:-0.0040500001 20:0.9526 21:-0.03064 22:0.95665002 23:0.0052 24:0.96935999 25:-0.017340001 26:0.96705002 27:0.01214 28:0.93526 29:-0.01272 30:0.93756998 31:0.022539999 32:0.95201999 33:0 34:1 #
0.089631707128411355900432511134568 1:0.045449998 2:0.86364001 3:-0.090910003 4:0.86364001 5:0.090910003 6:0.95455003 7:0.028969999 8:0.91540998 9:0.045449998 10:0.90908998 11:0.090910003 12:0.77272999 13:0.090910003 14:0.86364001 15:0 16:1 17:0 18:1 19:-0.045449998 20:0.90908998 21:0.045449998 22:1 23:0 24:0.95455003 25:0 26:1 27:0 28:0.77272999 29:-0.090910003 30:0.95455003 31:0.090910003 32:1 33:0 34:1 #
0.089631707128411355900432511134568 1:0.19083001 2:0.18086 3:0.21378 4:0.22427 5:0.23568 6:0.27381 7:0.25553 8:0.32929999 9:0.27226001 10:0.39023 11:0.28476 12:0.45581999 13:0.292 14:0.52494001 15:0.29304001 16:0.59614998 17:0.28714001 18:0.66775 19:0.27379999 20:0.73781002 21:0.25283 22:0.80426002 23:0.54701 24:0.66026002 25:-0.26495999 26:0.95512998 27:0.14756 28:0.96142 29:0.10123 30:0.99362999 31:0.051490001 32:1 33:0 34:1 #
-0.089631707128411355900432511134568 1:0.047120001 2:0.91483003 3:-0.00034999999 4:0.94066 5:0.08168 6:0.93159002 7:0.049249999 8:0.93522 9:0.01361 10:0.94520003 11:0.10087 12:0.93124002 13:0.084119998 14:0.9267 15:0.060380001 16:0.94834 17:0.0014 18:0.97172999 19:-0.01326 20:0.94625002 21:0.073299997 22:0.94171 23:0.032809999 24:0.96509999 25:0.01606 26:0.94590002 27:-0.019200001 28:0.93437999 29:-0.02723 30:0.95183003 31:0.0041899998 32:0.95112997 33:0 34:1 #
-0.089631707128411355900432511134568 1:-0.0122 2:0.97561002 3:0.054880001 4:1 5:0.0091500003 6:0.90854001 7:0.022260001 8:0.89665997 9:0.048780002 10:0.99694997 11:0.054880001 12:0.91463 13:0.024390001 14:0.90854001 15:-0.0122 16:0.94207001 17:0.02744 18:1 19:0.0030499999 20:0.95731997 21:0.0091500003 22:0.93901998 23:0.01829 24:0.90244001 25:0.01829 26:0.90244001 27:-0.0122 28:0.93598002 29:-0.02744 30:0.94817001 31:0 32:0.8811 33:0 34:1 #
0.089631707128411355900432511134568 1:0.90196002 2:-0.11765 3:0.90196002 4:0.23529001 5:0.56862998 6:0.72548997 7:0.21876 8:0.92874002 9:-0.21569 10:0.92157 11:-0.72548997 12:0.74510002 13:-1 14:0.35293999 15:-0.86274999 16:-0.23529001 17:-0.68627 18:-0.64705998 19:-0.33333001 20:-0.96078002 21:0.11765 22:-1 23:0.58824003 24:-0.82353002 25:0.92157 26:-0.49020001 27:1 28:0.019610001 29:1 30:0.62744999 31:0.54901999 32:1 33:0 34:1 #
0.089631707128411355900432511134568 1:-0.66667002 2:1 3:-1 4:0 5:-1 6:1 7:-1 8:0.19235 9:-1 10:-0.33333001 11:-0.33333001 12:-1 13:-0.92536002 14:-1 15:-0.66667002 16:-1 17:0 18:-1 19:1 20:-1 21:1 22:0 23:1 24:-1 25:1 26:-0.33333001 27:1 28:0.77122998 29:1 30:1 31:0.63547999 32:1 33:0 34:1 #
-0.089631707128411355900432511134568 1:0.54852003 2:0.70555001 3:0.20359001 4:0.87892997 5:-0.18725 6:0.89415002 7:-0.55230999 8:0.74105 9:-0.82154 10:0.44483 11:-0.94172001 12:0.058649998 13:-0.88998997 14:-0.32354 15:-0.65460998 16:-0.70163 17:-0.31411999 18:-0.91456002 19:0.10345 20:-0.96986002 21:0.50949001 22:-0.81857002 23:0.81190997 24:-0.55483001 25:0.96534002 26:-0.20449001 27:0.95147997 28:0.3044 29:0.75725001 30:0.64130998 31:0.41786 32:0.90147001 33:0 34:1 #
0.089631707128411355900432511134568 1:-0.04112 2:0.9842 3:-0.038550001 4:1 5:-0.02478 6:0.9702 7:-0.034729999 8:0.99188 9:-0.04527 10:0.96019 11:-0.04744 12:1 13:-0.02612 14:1 15:0.00025000001 16:0.98484999 17:-0.01175 18:1 19:-0.02581 20:1 21:-0.01271 22:1 23:-0.035100002 24:0.9982 25:-0.02844 26:0.97868001 27:-0.0076299999 28:0.98658001 29:0.0084300004 30:1 31:0.0087599996 32:0.96933001 33:0 34:1 #
-0.089631707128411355900432511134568 1:0.44534001 2:-0.42815 3:0.54522002 4:-0.40290999 5:0.60948002 6:-0.31713 7:0.69186997 8:-0.22838999 9:0.75595999 10:-0.15143999 11:0.79869998 12:-0.017340001 13:0.82161999 14:0.097089998 15:0.79777002 16:0.21137001 17:0.82192999 18:0.29451999 19:0.74079001 20:0.55311 21:0.71942002 22:0.56936997 23:0.60297 24:0.74976999 25:0.5302 26:0.80365002 27:0.33044001 28:0.98390001 29:0.25101 30:1 31:0.098020002 32:1 33:0 34:1 #
-0.089631707128411355900432511134568 1:0.37465 2:-0.33482999 3:0.44194999 4:-0.34717 5:0.55804998 6:-0.16209 7:0.60509998 8:-0.16556001 9:0.69713998 10:-0.16489001 11:0.71284002 12:0.063380003 13:0.73695999 14:0.075149998 15:0.68873 16:0.28378999 17:0.70442998 18:0.31799999 19:0.66237003 20:0.43130001 21:0.60179001 22:0.55075997 23:0.51879001 24:0.73584002 25:0.48906001 26:0.74706 27:0.35222 28:0.83903998 29:0.34099999 30:0.93102002 31:0.02187 32:0.98821998 33:0 34:1 #
-0.089631707128411355900432511134568 1:0.029680001 2:-0.64134002 3:0.18345 4:-0.65754002 5:0.30796 6:-0.61899 7:0.46039999 8:-0.57586998 9:0.58323997 10:-0.51033998 11:0.71675998 12:-0.37834999 13:0.80754 14:-0.26179999 15:0.79749 16:-0.12193 17:0.85474998 18:0.046999998 19:0.84803998 20:0.25139999 21:0.83156002 22:0.40349001 23:0.73742998 24:0.58827001 25:0.64888 26:0.71759999 27:0.48561001 28:0.82038999 29:0.35236999 30:0.90112001 31:0.15809999 32:0.97904998 33:0 34:1 #
0.089631707128411355900432511134568 1:-5.9999998e-05 2:-7.9999998e-05 3:-0.00012 4:-0.00012 5:-0.00023999999 6:-0.00018 7:-0.00047999999 8:-0.00025000001 9:-0.00089999998 10:-0.00031 11:-0.00166 12:-0.00028000001 13:-0.0029899999 14:-2.9999999e-05 15:-0.0052299998 16:0.00078 17:-0.0089299995 18:0.00281 19:-0.01482 20:0.0074100001 21:-0.02383 22:0.017069999 23:-0.03689 24:0.036490001 25:-0.054310001 26:0.074050002 27:-0.068970002 28:0.2069 29:-0.10345 30:0.24138001 31:-0.10345 32:0.31033999 33:0 34:1 #
0.089631707128411355900432511134568 1:-0.27201 2:0.01336 3:-0.1895 4:-0.047169998 5:-0.21129 6:-0.02612 7:-0.2321 8:-0.00046000001 9:-0.25123999 10:0.03004 11:-0.26795 12:0.065559998 13:-0.31525001 14:0.095129997 15:-0.29052001 16:0.15196 17:-0.29440999 18:0.20269001 19:-0.18946999 20:0.034589998 21:-0.31997001 22:0.28931001 23:-0.26339 24:0.38095999 25:0.04403 26:0.29796001 27:-0.21383999 28:-0.13129 29:-0.14380001 30:0.58263999 31:-0.078960001 32:0.64946997 33:0 34:1 #
0.089631707128411355900432511134568 1:-0.00291 2:0.00025000001 3:-0.0040799999 4:-0.00089000002 5:-0.0052 6:-0.00294 7:-0.0058599999 8:-0.0062099998 9:-0.0053900001 10:-0.01097 11:-0.0027300001 12:-0.01726 13:0.0035699999 14:-0.024739999 15:0.01532 16:-0.032299999 17:0.03458 18:-0.037659999 19:0.063170001 20:-0.036850002 21:0.10188 22:-0.023669999 23:0.14922 24:0.0107 25:0.19938999 26:0.077660002 27:0.23965999 28:0.19035999 29:0.26666999 30:0.46667001 31:0.16666999 32:0.25 33:0 34:1 #
-0.047236538110261905298870033220737 1:-0.48241001 2:-0.40200999 3:0.026140001 4:0.18301 5:0.05229 6:-1 7:0.091760002 8:0.74384999 9:-0.43136999 10:-1 11:-0.94117999 12:0.94117999 13:-0.83007002 14:-0.04575 15:-0.54247999 16:-0.60131001 17:-0.83007002 18:-0.98039001 19:-0.026140001 20:-0.79084998 21:0.33987001 22:-0.81699002 23:1 24:-1 25:0.71241999 26:-0.30719 27:-0.70984 28:-0.75692999 29:0.15033001 30:0.22222 31:0.28105 32:-1 33:0 34:1 #
-0.089631707128411355900432511134568 1:0.33333001 2:0.090910003 3:0.36364001 4:0.24242 5:0.57576001 6:0.96969998 7:0.12331 8:0.72961003 9:-0.39394 10:1 11:-0.42423999 12:0.57576001 13:-0.57576001 14:0.48484999 15:-0.84847999 16:-0.090910003 17:-0.48484999 18:-0.33333001 19:-0.12121 20:-0.57576001 21:0 22:-0.57576001 23:0.48484999 24:-0.45455 25:0.73062003 26:-0.32104 27:0.36364001 28:0.06061 29:0.33333001 30:0.45455 31:0.51515001 32:1 33:0 34:1 #
0.089631707128411355900432511134568 1:1 2:1 3:1 4:1 5:0.25 6:1 7:1 8:1 9:1 10:1 11:1 12:1 13:0.92000997 14:1 15:0 16:1 17:1 18:-0.375 19:0.58986002 20:1 21:0.48980999 22:1 23:0.39495 24:1 25:-0.125 26:1 27:0.22108001 28:1 29:0.14211001 30:1 31:0.068429999 32:1 33:0 34:1 #
0.089631707128411355900432511134568 1:0.35095 2:-0.56230998 3:0.40731999 4:-0.53145999 5:0.50130999 6:-0.46799001 7:0.58552998 8:-0.38798001 9:0.65707999 10:-0.29291001 11:0.71327001 12:-0.18479 13:0.76968998 14:-0.12064 15:0.76170999 16:0.046859998 17:0.76818001 18:0.19128001 19:0.67697001 20:0.31705001 21:0.74676001 22:0.43270001 23:0.62718999 24:0.57449001 25:0.56830001 26:0.70587999 27:0.36790001 28:0.72582 29:0.29756999 30:0.86399001 31:0.15451001 32:0.92308003 33:0 34:1 #
-0.089631707128411355900432511134568 1:0.13198 2:0.16655 3:0.13631999 4:0.18767001 5:0.16136999 6:0.26429 7:0.14314 8:0.23641001 9:0.1453 10:0.26436001 11:0.14638001 12:0.29495001 13:0.14616001 14:0.32835001 15:0.15756001 16:0.48157999 17:0.02922 18:0.29352 19:0.13507 20:0.44747001 21:0.12685999 22:0.49417999 23:0.2033 24:0.43836999 25:0.12961 26:0.23887999 27:0.083149999 28:0.65829003 29:0.060589999 30:0.72171003 31:0.13214999 32:0.83609003 33:0 34:1 #
-0.089631707128411355900432511134568 1:0.02128 2:0.93616998 3:0.01064 4:1 5:0.02482 6:0.94681001 7:0.032469999 8:0.94305003 9:0.046100002 10:0.90070999 11:0.092200004 12:1 13:0.07801 14:0.8617 15:-0.031909999 16:0.89715999 17:-0.031909999 18:1 19:0.035459999 20:0.97517997 21:0.01064 22:0.97872001 23:0.035459999 24:1 25:0.056740001 26:0.84751999 27:0.00709 28:0.90070999 29:-0.017729999 30:1 31:0.017729999 32:0.90070999 33:0 34:1 #
0.089631707128411355900432511134568 1:0.50457001 2:-0.21572 3:0.54479003 4:0.027419999 5:0.60512 6:0.45521 7:0.30384001 8:0.60097998 9:-0.054839998 10:0.73856997 11:-0.3766 12:0.71481001 13:-0.63620001 14:0.49908999 15:-0.69287002 16:-0.12797 17:-0.62156999 18:-0.38391 19:-0.31079 20:-0.62706 21:0 22:-0.76051003 23:0.42048001 24:-0.73675001 25:0.64898998 26:-0.55940998 27:0.77513999 28:0.21572 29:0.64534003 30:0.48263001 31:0.38574001 32:0.94332999 33:0 34:1 #
-0.045950361479512556728277417050776 1:0 2:0 3:1 4:-1 5:0 6:0 7:1 8:1 9:0 10:0 11:1 12:1 13:0 14:0 15:0 16:0 17:-1 18:-1 19:0 20:0 21:-1 22:-1 23:0 24:0 25:0 26:0 27:1 28:1 29:1 30:1 31:0 32:0 33:0 34:0 #
-0.089631707128411355900432511134568 1:0.01227 2:0.64407003 3:0.0119 4:0.66623998 5:0.11598 6:0.62234998 7:0.01096 8:0.70823997 9:-0.042429999 10:0.79632002 11:0.00978 12:0.74634999 13:0.0090899998 14:0.76365 15:-0.035360001 16:0.77934998 17:-0.12447 18:0.80622 19:0.00673 20:0.80738002 21:0.0058499998 22:0.81892002 23:0.041019998 24:0.75813001 25:0.099009998 26:0.84299999 27:0.0030100001 28:0.84341002 29:0.00202 30:0.84802997 31:0.053750001 32:0.68317002 33:0 34:1 #
0.089631707128411355900432511134568 1:-0.0026 2:1 3:0.070610002 4:0.97845 5:0.0081799999 6:0.97473001 7:0.043559998 8:0.95243001 9:0.081009999 10:0.93273997 11:0.070979998 12:0.96358001 13:0.049800001 14:0.9777 15:-0.0070600002 16:0.98550999 17:0.071350001 18:0.94277 19:0.018580001 20:0.98624998 21:0.047189999 22:0.97213 23:0.035300002 24:0.94054002 25:0.01598 26:0.95801002 27:0.0037199999 28:0.98922002 29:-0.0026 30:0.97286999 31:0.0089199999 32:0.94648999 33:0 34:1 #
-0.089631707128411355900432511134568 1:-0.65934998 2:1 3:-0.63156003 4:1 5:-0.27778 6:1 7:-0.57091999 8:1 9:-0.27778 10:1 11:-0.50332999 12:1 13:-0.25 14:0 15:-0.42862001 16:1 17:-0.38852999 18:1 19:-0.3466 20:1 21:-0.11111 22:0.16666999 23:-0.25712001 24:1 25:-0.22222 26:0.36111 27:-0.11111 28:0.5 29:-1 30:1 31:-0.055289999 32:1 33:0 34:1 #
-0.089631707128411355900432511134568 1:-0.036729999 2:0.92225999 3:-0.034639999 4:0.92773998 5:-0.058430001 6:1 7:-0.030339999 8:0.93772 9:0.020029999 10:0.98163998 11:-0.025909999 12:0.94635999 13:-0.023639999 14:0.95016003 15:-0.088480003 16:0.91152 17:0.01002 18:0.98496997 19:-0.01671 20:0.95946997 21:-0.01436 22:0.96186 23:0.01419 24:1 25:-0.03923 26:0.87980002 27:-0.00722 28:0.96683002 29:-0.0048199999 30:0.96775001 31:0.080130003 32:1 33:0 34:1 #
-0.089631707128411355900432511134568 1:-0.0057700002 2:0.92697001 3:0.0044200001 4:0.92458999 5:0.02242 6:0.92119998 7:0.025420001 8:0.92488998 9:0.03193 10:0.93988001 11:0.061480001 12:0.89469999 13:0.07677 14:0.91406 15:0.01393 16:0.93783998 17:0.02004 18:0.94836998 19:-0.01461 20:0.93954003 21:0.046879999 22:0.92594999 23:0.017659999 24:0.94124001 25:0.024460001 26:0.95583999 27:-0.034309998 28:0.95177001 29:-0.032269999 30:0.93207002 31:-0.00034 32:0.94700998 33:0 34:1 #
0.089631707128411355900432511134568 1:-0.020169999 2:0.02249 3:-0.041420002 4:0.02224 5:-0.070359997 6:0.01033 7:-0.10242 8:-0.020889999 9:-0.12744001 10:-0.077820003 11:-0.12964 12:-0.16178 13:-0.09025 14:-0.26477 15:0.0067799999 16:-0.36675999 17:0.16709 18:-0.43663001 19:0.37856001 20:-0.4382 21:0.60793 22:-0.34107 23:0.80453998 24:-0.13336 25:0.91180003 26:0.16851 27:1 28:0.25 29:0.25 30:1 31:0.5 32:1 33:0 34:1 #
-0.048178917573276587582586927283046 1:-0.34367001 2:-0.66931999 3:-0.17921001 4:-0.75199002 5:-0.043990001 6:-0.75405997 7:0.15618999 8:-0.77096999 9:0.30912 10:-0.68851 11:0.50427997 12:-0.65515 13:0.62563002 14:-0.50251001 15:0.75554001 16:-0.42811 17:0.83938998 18:-0.24742 19:0.93681997 20:0.05167 21:0.89489001 22:0.14939 23:0.83230001 24:0.41835999 25:0.70829999 26:0.56686997 27:0.56568998 28:0.80514002 29:0.40803 30:0.96131998 31:0.19959 32:0.94331002 33:0 34:1 #
-0.089631707128411355900432511134568 1:0.79790002 2:0.17758 3:0.0024600001 4:0.3867 5:1 6:1 7:-0.06831 8:0.85470998 9:-0.45950001 10:0.73791999 11:-0.20443 12:0.25615999 13:-0.93595999 14:-0.054189999 15:-0.82511997 16:-0.46551999 17:-0.34235999 18:-0.38916001 19:-0.08867 20:-0.92856997 21:0.36945999 22:-0.87191999 23:0.37685001 24:-0.31527001 25:0.93595999 26:-0.27586001 27:0.92712998 28:0.12993 29:0.061579999 30:0.36700001 31:1 32:1 33:0 34:1 #
-0.089631707128411355900432511134568 1:0.46301001 2:0.75494999 3:0.097999997 4:0.88654 5:-0.28123 6:0.85977 7:-0.61958998 8:0.67537999 9:-0.85368001 10:0.36318001 11:-0.93787998 12:-0.022500001 13:-0.85205001 14:-0.41545999 15:-0.59378999 16:-0.71863002 17:-0.25554001 18:-0.93001002 19:0.15192001 20:-0.96631002 21:0.55085999 22:-0.79657 23:0.83262998 24:-0.52236003 25:0.97820002 26:-0.13342001 27:0.95905 28:0.29921001 29:0.74760997 30:0.65354002 31:0.41113001 32:0.90547001 33:0 34:1 #
0.089631707128411355900432511134568 1:-0.12235 2:0.86786002 3:-0.12452 4:0.83524001 5:-0.13051 6:0.85535997 7:-0.11808 8:0.86453003 9:-0.14138 10:0.82980001 11:-0.11909 12:0.88906997 13:-0.12126 14:0.88418001 15:-0.040240001 16:0.89450997 17:-0.05057 18:0.86025 19:-0.08918 20:0.93093997 21:-0.01033 22:0.93040001 23:-0.084279999 24:0.90103 25:-0.10223 26:0.89178997 27:0.01359 28:0.92442 29:0.01305 30:0.92006999 31:0.016310001 32:0.88853002 33:0 34:1 #
0.089631707128411355900432511134568 1:0.058820002 2:0.91175997 3:0.058820002 4:0.97059 5:-0.11765 6:0.94117999 7:0.026000001 8:0.92663002 9:0.029410001 10:0.85294002 11:0.029410001 12:0.88235003 13:0.11765 14:0.76471001 15:0 16:1 17:0 18:1 19:0.029410001 20:0.94117999 21:0.14706001 22:0.97059 23:-0.17647 24:0.97059 25:-0.029410001 26:0.91175997 27:0.088239998 28:0.82353002 29:0.17647 30:0.97059 31:-0.088239998 32:0.91175997 33:0 34:1 #
-0.089631707128411355900432511134568 1:-0.074199997 2:0.92049003 3:-0.072439998 4:0.91991001 5:-0.074790001 6:0.90341997 7:-0.05827 8:0.92694998 9:-0.04476 10:0.92049003 11:-0.04417 12:0.92815 13:-0.02179 14:0.94229001 15:-0.047109999 16:0.95230001 17:-0.04064 18:0.95464998 19:-0.038869999 20:0.97055 21:-0.01767 22:0.97172999 23:-0.037099998 24:0.94641 25:-0.0106 26:0.95877999 27:-0.01472 28:0.94994003 29:0.01001 30:0.94169998 31:-0.01531 32:0.94051999 33:0 34:1 #
0.089631707128411355900432511134568 1:1 2:-0.55555999 3:1 4:0.22222 5:0.84353 6:0.57454002 7:0.45019001 8:0.92119998 9:0 10:0.33333001 11:-0.22222 12:0.77778 13:-0.77778 14:-0.22222 15:-1 16:0.55555999 17:-0.77778 18:-0.66667002 19:-0.22222 20:-1 21:-0.11111 22:-1 23:0.33333001 24:-1 25:0.88889003 26:-0.33333001 27:1 28:-0.22222 29:0.90763003 30:0.53694999 31:0.44444001 32:0.44444001 33:0 34:1 #
0.089631707128411355900432511134568 1:-0.18182001 2:1 3:-0.27272999 4:1 5:0.45455 6:1 7:-0.049139999 8:1 9:-0.090910003 10:1 11:0.090910003 12:1 13:-0.36364001 14:1 15:0 16:1 17:0.090910003 18:1 19:-0.18182001 20:1 21:-0.27272999 22:1 23:0 24:1 25:-0.090910003 26:1 27:0.090910003 28:1 29:-0.45455 30:1 31:0.45455 32:1 33:0 34:1 #
-0.089631707128411355900432511134568 1:0.29942 2:0.40821001 3:0.29324001 4:0.43483999 5:0.28573999 6:0.46215999 7:0.27687001 8:0.49013001 9:0.26653001 10:0.51871997 11:0.072849996 12:0.68874002 13:0.27814999 14:0.65232003 15:0.13907 16:0.54304999 17:0.42715001 18:0.71854001 19:0.19868 20:0.63906997 21:0.12252 22:0.50331002 23:0.24172001 24:0.32780999 25:0.16225 26:0.56623 27:0.072849996 28:0.81125998 29:0.55298001 30:0.85430002 31:-0.60926998 32:0.58939999 33:0 34:1 #
-0.089631707128411355900432511134568 1:-0.01383 2:0.61066997 3:0.069169998 4:0.37549001 5:-0.20949 6:0.60079002 7:-0.12041 8:0.61847001 9:-0.10474 10:0.67194003 11:-0.28656 12:0.66403002 13:-0.25296 14:0.79249001 15:-0.11858 16:0.63635999 17:-0.0039499998 18:0.63042998 19:0.041499998 20:0.73715001 21:-0.1917 22:0.87945002 23:-0.23518001 24:0.66798002 25:-0.11067 26:0.69564998 27:0.094860002 28:0.72727001 29:0.16996001 30:0.53754997 31:-0.13241 32:0.74703997 33:0 34:1 #
-0.014976987372370150972122893051619 1:-0.044349998 2:0.56318998 3:-0.11752 4:0.53658998 5:-0.028820001 6:0.59867001 7:-0.11455 8:0.53930002 9:-0.20176999 10:0.41463 11:-0.13525 12:0.50775999 13:-0.19512001 14:0.47894001 15:-0.046560001 16:0.52993 17:-0.13525 18:0.54544997 19:-0.033259999 20:0.67848998 21:-0.16186 22:0.63858002 23:0.0133 24:0.52993 25:-0.13969 26:0.47894001 27:0.068740003 28:0.55431998 29:0.0066499999 30:0.5898 31:0.11308 32:0.46785 33:0 34:1 #
-0.089631707128411355900432511134568 1:0.42467001 2:-0.27339 3:0.51700997 4:-0.25516 5:0.56015003 6:-0.18226001 7:0.60696 8:-0.11925 9:0.63182998 10:-0.087480001 11:0.72236001 12:0.02066 13:0.68103999 14:0.095990002 15:0.63547999 16:0.29587001 17:0.67861003 18:0.33353999 19:0.58445001 20:0.4921 21:0.60813999 22:0.57898003 23:0.50121999 24:0.65916997 25:0.41251999 26:0.69319999 27:0.28068 28:0.71627998 29:0.20656 30:0.78128999 31:0.094169997 32:0.79830003 33:0 34:1 #
0.089631707128411355900432511134568 1:-0.085709997 2:0.58960998 3:-0.05455 4:0.54544997 5:0.033769999 6:0.43116999 7:-0.0328 8:0.53214997 9:0 10:0.59220999 11:-0.01039 12:0.49090999 13:-0.033769999 14:0.48571 15:-0.01039 16:0.55325001 17:-0.059739999 18:0.52727002 19:-0.036359999 20:0.51687998 21:-0.11948 22:0.55844003 23:0.059739999 24:0.44674999 25:0.096100003 26:0.50129998 27:-0.041560002 28:0.50648999 29:-0.096100003 30:0.43116999 31:0.01818 32:0.49869999 33:0 34:1 #
0.089631707128411355900432511134568 1:0.073169999 2:0.17072999 3:0 4:0.19512001 5:0.055039998 6:0.1741 7:0.05641 8:0.19304 9:0.097560003 10:0.21951 11:0.05813 12:0.23698001 13:0.12195 14:0.26829001 15:0.073169999 16:0.31707001 17:0 18:0.36585 19:0 20:0.29268 21:0.048780002 22:0.21951 23:0.04755 24:0.43313 25:0.12195 26:0.19512001 27:0.03466 28:0.52750999 29:-0.024390001 30:0.34145999 31:0.01403 32:0.64121997 33:0 34:1 #
0.089631707128411355900432511134568 1:-0.046980001 2:0.65213001 3:-0.051449999 4:0.78859001 5:0.048099998 6:0.63310999 7:-0.016729999 8:0.69845003 9:-0.095080003 10:0.71253002 11:0.11745 12:0.60961998 13:-0.01342 14:0.62528002 15:-0.090599999 16:0.6868 17:-0.16554999 18:0.83669001 19:0.066 20:0.79754001 21:-0.0022400001 22:0.71587998 23:0.15772 24:0.71029001 25:0.0022400001 26:0.74273002 27:0.01678 28:0.70358002 29:-0.069349997 30:0.70694 31:0.1085 32:0.61857003 33:0 34:1 #
0.089631707128411355900432511134568 1:0.74242002 2:-0.10289 3:0.77701998 4:-0.029619999 5:0.80439001 6:0.074969999 7:0.78540999 8:0.16813 9:0.76209998 10:0.26831999 11:0.75621998 12:0.35289001 13:0.68159002 14:0.44244999 15:0.70398003 16:0.48868999 17:0.66892999 18:0.58547997 19:0.58819997 20:0.69946003 21:0.52284002 22:0.72298002 23:0.45217001 24:0.85549998 25:0.32710999 26:0.89008999 27:0.32247999 28:0.88783002 29:0.20036 30:0.94120002 31:0.13082001 32:0.97466999 33:0 34:1 #
-0.089631707128411355900432511134568 1:-0.074390002 2:1 3:-0.14194 4:1 5:0.082989998 6:1 7:-0.068230003 8:1 9:-0.22978 10:1 11:-0.02685 12:1 13:-0.10108 14:1 15:0.059 16:1 17:-0.071570002 18:1 19:-0.06374 20:1 21:-0.017309999 22:1 23:-0.01511 24:1 25:-0.12352 26:1 27:0.01373 28:1 29:-0.055580001 30:1 31:0.16195001 32:1 33:0 34:1 #
-0.081773374611374155529475160619768 1:0.68822002 2:0.81979001 3:0.81006998 4:0.87756997 5:0.42677 6:0.62958002 7:0.17076001 8:1 9:-0.30063 10:0.28604001 11:-0.85755002 12:0.86669999 13:-0.69594002 14:0.98483998 15:0.18134999 16:0.88673002 17:-0.052060001 18:0.95451999 19:0.88444 20:0.91961998 21:-0.85727 22:0.95823997 23:0.079810001 24:0.97311002 25:-0.10984 26:0.84009999 27:0.70709002 28:0.76001 29:0.80520999 30:0.82809001 31:0.40332001 32:0.5984 33:0 34:1 #
-0.089631707128411355900432511134568 1:-0.10169 2:0.76270998 3:-0.15254 4:0.83051002 5:-0.0339 6:0.66101998 7:-0.00266 8:0.67286998 9:0.15254 10:0.40678 11:0.05085 12:0.86440998 13:0.30508 14:0.59322 15:0.0339 16:0.55931997 17:0.01695 18:0.54237002 19:-0.35593 20:0.83051002 21:0.28814 22:0.64407003 23:-0.13559 24:0.50847 25:-0.01695 26:0.30508 27:-0.16948999 28:0.52542001 29:0.084749997 30:0.94915003 31:-0.0339 32:0.52542001 33:0 34:1 #
0.089631707128411355900432511134568 1:-0.69999999 2:0.13993999 3:-0.73145002 4:0.16604 5:-0.78239 6:0.26352 7:-0.76054001 8:0.35504001 9:-0.73333001 10:0.49214 11:-0.87326998 12:0.54465002 13:-0.70975 14:0.68458998 15:-0.57578999 16:0.59622997 17:-0.58019 18:0.69748002 19:-0.58898997 20:0.75722998 21:-0.44119 22:0.90818 23:-0.49057001 24:0.92736 25:-0.30566001 26:1 27:-0.35093999 28:0.94622999 29:-0.25345999 30:1 31:-0.28428 32:1 33:0 34:1 #
-0.089631707128411355900432511134568 1:-0.24841 2:0.65816998 3:-0.37792 4:0.72610998 5:-0.22293 6:0.66241997 7:-0.23311999 8:0.74115002 9:-0.26115 10:0.84925997 11:-0.033969998 12:0.89384001 13:-0.15711001 14:0.79193002 15:-0.10191 16:0.61996001 17:-0.21231 18:0.78131998 19:-0.18684 20:0.77495003 21:-0.11677 22:0.74947 23:-0.13587999 24:0.71974999 25:-0.07643 26:0.73672998 27:0 28:0.81953001 29:-0.084930003 30:0.86412001 31:-0.033969998 32:0.84713 33:0 34:1 #
0.089631707128411355900432511134568 1:0.49831 2:0.30588001 3:0.49721 4:0.35069999 5:1 6:0.12473 7:0.48199999 8:0.44174001 9:0.57549 10:0.94529998 11:0.44872001 12:0.53119999 13:0.42528 14:0.57398999 15:-0.028449999 16:0.64332998 17:0.17287 18:0.49671999 19:0.32925001 20:0.68798 21:0.28953999 22:0.71947002 23:0.21224999 24:1 25:0.052519999 26:0.55580002 27:0.15266 28:0.78825998 29:0.10278 30:0.80150998 31:-0.38293001 32:0.73523003 33:0 34:1 #
-0.089631707128411355900432511134568 1:0.15180001 2:0.56167001 3:0.18897 4:0.44141001 5:0.32448 6:0.15180001 7:0.17951 8:0.49090001 9:0.37380999 10:0.53320998 11:0.058820002 12:0.32067999 13:0.072109997 14:0.72676003 15:0.16888 16:0.69450003 17:-0.034159999 18:0.53131002 19:0.03985 20:0.58634001 21:0.12524 22:0.69069999 23:-0.077799998 24:0.56167001 25:0.01139 26:0.71157002 27:0.096770003 28:0.81594002 29:-0.12144 30:0.70019001 31:0.11385 32:1 33:0 34:1 #
0.089631707128411355900432511134568 1:-0.031750001 2:0.625 3:-0.01389 4:0.68848997 5:-0.13492 6:0.61706001 7:-0.01237 8:0.61290997 9:0.03968 10:0.5 11:0.037700001 12:0.59127003 13:-0.02778 14:0.47817001 15:0.015869999 16:0.60316998 17:0.02579 18:0.70832998 19:0.0119 20:0.62698001 21:-0.023809999 22:0.59127003 23:0.099210002 24:0.61706001 25:0.03373 26:0.53968 27:-0.0119 28:0.61508 29:-0.053569999 30:0.75198001 31:-0.031750001 32:0.57539999 33:0 34:1 #
-0.089631707128411355900432511134568 1:-0.16243 2:0.87402999 3:-0.03757 4:0.96021998 5:-0.17238 6:0.82982999 7:-0.077600002 8:0.89147002 9:-0.020989999 10:0.91049999 11:-0.0232 12:0.92154998 13:0.01215 14:0.88729 15:-0.12928 16:0.80773002 17:-0.0088400003 18:0.91381001 19:-0.045299999 20:0.90608001 21:-0.01436 22:0.89060998 23:-0.033149999 24:0.89723998 25:0.0011 26:0.85746002 27:-0.036460001 28:0.95691001 29:-0.019889999 30:0.98122001 31:-0.01657 32:0.90608001 33:0 34:1 #
-0.089631707128411355900432511134568 1:-0.51546001 2:0.45361 3:0.041239999 4:0.47422999 5:-0.26289001 6:0.15464 7:-0.12447 8:0.53395998 9:0.19588 10:0.70618999 11:0.08247 12:0.42267999 13:0.18557 14:0.54639 15:-0.27320001 16:0.5 17:0.061859999 18:0.42267999 19:-0.11856 20:0.45361 21:0.15978999 22:0.49485001 23:-0.21649 24:0.26289001 25:0.072159998 26:0.73196 27:-0.39175001 28:0.70103002 29:-0.12371 30:0.42783999 31:-0.12371 32:0.47938001 33:0 34:1 #
0.089631707128411355900432511134568 1:0.041669998 2:0.70832998 3:0 4:0.70832998 5:0.20833001 6:1 7:0.055029999 8:0.83796 9:-0.125 10:0.83332998 11:0.16666999 12:0.75 13:-0.083329998 14:0.66667002 15:0.083329998 16:1 17:0.041669998 18:0.875 19:0 20:0.70832998 21:0.125 22:0.83332998 23:0.041669998 24:0.91667002 25:-0.083329998 26:0.875 27:0.25 28:0.70832998 29:-0.16666999 30:0.83332998 31:0.29166999 32:0.91667002 33:0 34:1 #
0.089631707128411355900432511134568 1:-0.01832 2:0.28985 3:0 4:0.36364001 5:0 6:0.27272999 7:-0.017680001 8:0.34441999 9:-0.090910003 10:0.36364001 11:0.18182001 12:0.27272999 13:-0.090910003 14:0.36364001 15:0 16:0.45455 17:-0.18182001 18:0.63635999 19:-0.01343 20:0.48611999 21:-0.090910003 22:0.45455 23:-0.090910003 24:0.36364001 25:0 26:0.63635999 27:0.18182001 28:0.27272999 29:0.090910003 30:0.63635999 31:0.090910003 32:0.45455 33:0 34:1 #
-0.048855681186821792172381151431182 1:0.27926001 2:0.76862001 3:-0.070289999 4:0.83142 5:-0.40656 6:0.74845999 7:-0.68593001 8:0.53228998 9:-0.85702997 10:0.21581 11:-0.88590997 12:-0.14895 13:-0.76196998 14:-0.50931001 15:-0.48403999 16:-0.76064003 17:-0.15315001 18:-0.92281997 19:0.25132999 20:-0.92818999 21:0.58511001 22:-0.7766 23:0.84605002 24:-0.45725 25:0.94414997 26:-0.047869999 27:0.90824002 28:0.29521 29:0.71803999 30:0.66128999 31:0.39286 32:0.89589 33:0 34:1 #
0.089631707128411355900432511134568 1:-0.091859996 2:0.79088998 3:-0.01942 4:0.73935997 5:-0.064230002 6:0.88125002 7:-0.03678 8:0.82383001 9:-0.01942 10:0.79685998 11:0.022399999 12:0.90515 13:0.01195 14:0.88125002 15:-0.1419 16:0.83569998 17:-0.067960002 18:0.83718997 19:0.035100002 20:0.78342003 21:-0.061239999 22:0.88050997 23:0.11949 24:0.86258 25:0.090369999 26:0.84316999 27:-0.041820001 28:0.77521002 29:-0.056759998 30:0.81927001 31:0.00075000001 32:0.85736001 33:0 34:1 #
-0.089631707128411355900432511134568 1:-0.21918 2:0.96574998 3:-0.086759999 4:0.85387999 5:-0.20091 6:0.97031999 7:-0.092519999 8:0.94042999 9:0.068489999 10:0.92466003 11:-0.052510001 12:0.92009002 13:0.10274 14:1 15:-0.21233 16:0.97031999 17:-0.086759999 18:0.86758 19:-0.0022799999 20:0.91324002 21:-0.084469996 22:0.93607002 23:0.0022799999 24:0.91781002 25:0.18265 26:0.98629999 27:-0.17123 28:0.96574998 29:-0.0022799999 30:0.91324002 31:-0.14384 32:0.97031999 33:0 34:1 #
-0.0029215044596666889416269885515476 1:1 2:-1 3:1 4:-1 5:-1 6:1 7:-1 8:1 9:0 10:1 11:-1 12:-1 13:-1 14:-1 15:-1 16:1 17:1 18:1 19:-1 20:-1 21:-1 22:-1 23:1 24:1 25:1 26:1 27:1 28:-1 29:1 30:-1 31:-1 32:1 33:0 34:0 #
0.089631707128411355900432511134568 1:0.16666999 2:0.63332999 3:0.16666999 4:0.60000002 5:0.13333 6:0.60000002 7:0.10168 8:0.65932 9:0.13333 10:0.63332999 11:0 12:0.76666999 13:-0.033330001 14:0.73333001 15:0.1 16:0.66667002 17:0.1 18:0.69999999 19:0 20:0.73333001 21:0 22:0.80000001 23:0 24:0.63332999 25:0 26:0.69999999 27:0.066670001 28:0.69999999 29:0.066670001 30:0.63332999 31:0.033330001 32:0.60000002 33:0 34:1 #
0.089631707128411355900432511134568 1:-0.24324 2:0.51350999 3:-0.59459001 4:0.72973001 5:-0.23027 6:0.58477998 7:-0.22163001 8:0.61031002 9:-0.29730001 10:0.35135001 11:0.13514 12:0.75676 13:0.054049999 14:0.62162 15:-0.17666 16:0.71833003 17:-0.21622001 18:0.32431999 19:-0.054049999 20:0.62162 21:0 22:0.51350999 23:-0.27026999 24:1 25:0.18919 26:0.86486 27:-0.24324 28:0.64864999 29:0.29730001 30:0.64864999 31:-0.37838 32:1 33:0 34:1 #
-0.089631707128411355900432511134568 1:0.086599998 2:0.60073 3:-0.17343 4:0.61216998 5:-0.42085999 6:0.52414 7:-0.62295997 8:0.33531001 9:-0.73856002 10:0.069109999 11:-0.73855001 12:-0.23428001 13:-0.62443 14:-0.51778001 15:-0.34275001 16:-0.73563999 17:-0.053649999 18:-0.86150002 19:0.30355999 20:-0.82679999 21:0.62077999 22:-0.67273998 23:0.84413999 24:-0.38874999 25:0.93344998 26:-0.041930001 27:0.88696003 28:0.35916001 29:0.69437999 30:0.67311001 31:0.37917 32:0.89563 33:0 34:1 #
0.089631707128411355900432511134568 1:0.093460001 2:0.54632002 3:0.090460002 4:0.56466001 5:0.067599997 6:0.38227999 7:0.083039999 8:0.59934998 9:0.18065 10:0.84033 11:0.073810004 12:0.63077003 13:0.068559997 14:0.64503002 15:-0.04662 16:0.63402998 17:0.056919999 18:0.67022997 19:0.050579999 20:0.68101001 21:0.043930002 22:0.69050002 23:0.055939998 24:0.34615001 25:0.01282 26:0.68065 27:0.02258 28:0.71063 29:0.01513 30:0.71442002 31:-0.169 32:0.50466001 33:0 34:1 #
-0.089631707128411355900432511134568 1:0.10698 2:0.84258002 3:0.10134 4:0.85197997 5:0.087860003 6:0.87597001 7:0.089500003 8:0.86922997 9:0.10853 10:0.83721 11:0.076970004 12:0.88429999 13:0.070469998 14:0.89096999 15:0 16:0.95866001 17:0.028419999 18:0.87339002 19:0.050179999 20:0.90737998 21:0.043200001 22:0.91161001 23:0.1137 24:0.87597001 25:0.0801 26:0.92764997 27:0.0218 28:0.92045999 29:0.01456 30:0.92211002 31:0.01809 32:0.85013002 33:0 34:1 #
0.089631707128411355900432511134568 1:0.30293 2:0.67492998 3:0.29074001 4:0.69634998 5:0.25 6:0.75 7:0.26388001 8:0.73944002 9:0.5 10:0.5 11:-0.25 12:1 13:0 14:0.75 15:0.5 16:0.75 17:0.25 18:0.75 19:0.16227999 20:0.86922002 21:0.14210001 22:0.89067 23:0.12094 24:0.91201001 25:0 26:0.75 27:0.5 28:0.5 29:0 30:1 31:0 32:1 33:0 34:1 #
-0.089631707128411355900432511134568 1:0.091930002 2:0.88238001 3:0.21811999 4:0.75935 5:-0.04101 6:0.78773999 7:-0.02908 8:0.85966998 9:-0.091930002 10:0.86660999 11:-0.25101 12:0.78953999 13:-0.34024 14:0.97882003 15:-0.0099099996 16:0.84451997 17:-0.04642 18:0.88643998 19:0.19964001 20:0.89410001 21:-0.26723999 22:0.90446001 23:-0.02028 24:0.88598001 25:-0.08337 26:0.89455003 27:0.29291999 28:0.99009001 29:0.18297 30:0.79945999 31:0.043260001 32:0.87111002 33:0 34:1 #
-0.089631707128411355900432511134568 1:0 2:0.92553002 3:0.18085 4:0.92553002 5:0.067380004 6:0.7766 7:0.081649996 8:0.89526999 9:0.15956999 10:0.91135001 11:0.070919998 12:0.80496001 13:0.00709 14:0.91488999 15:-0.00709 16:0.95034999 17:0.20213 18:0.93261999 19:0 20:0.94326001 21:-0.00709 22:0.94681001 23:0.088650003 24:0.80141997 25:0.01064 26:0.92908001 27:-0.017729999 28:0.90425998 29:-0.081560001 30:0.79078001 31:0.081560001 32:0.82624 33:0 34:1 #
0.089631707128411355900432511134568 1:-0.15143 2:0.82143003 3:-0.050000001 4:0.81428999 5:-0.10429 6:0.82571 7:-0.086690001 8:0.81598002 9:-0.068570003 10:0.76999998 11:-0.050000001 12:0.84285998 13:-0.084289998 14:0.76857001 15:-0.11857 16:0.81 17:-0.05429 18:0.82857001 19:0.0028599999 20:0.86429 21:-0.067139998 22:0.85571003 23:0 24:0.87571001 25:-0.042860001 26:0.79571003 27:0.0071399999 28:0.79000002 29:-0.0014299999 30:0.85143 31:0.037140001 32:0.81142998 33:0 34:1 #
0.089631707128411355900432511134568 1:-0.47898 2:-0.07457 3:-0.54074001 4:-0.0184 5:-0.54927999 6:-0.071620002 7:-0.59588999 8:0.093120001 9:-0.63600999 10:0.14749999 11:-0.59691 12:0.33509001 13:-0.54171997 14:0.40505999 15:-0.72109002 16:0.27070001 17:-0.70728999 18:0.37254 19:-0.49967 20:0.63338 21:-0.49639001 22:0.70301998 23:-0.28909001 24:0.79271001 25:-0.27070001 26:0.81702 27:-0.22601999 28:0.87023997 29:-0.17674001 30:0.96419001 31:-0.19448 32:0.92246997 33:0 34:1 #
-0.089631707128411355900432511134568 1:-0.098080002 2:0.42223001 3:-0.096210003 4:0.44277 5:-0.085369997 6:0.52613002 7:-0.091279998 8:0.48659 9:-0.22822 10:0.47038001 11:-0.084530003 12:0.53430003 13:-0.080389999 14:0.55970001 15:0.01394 16:0.71253997 17:0.045299999 18:0.39199001 19:-0.064379998 20:0.6426 21:-0.057709999 22:0.67259997 23:-0.07666 24:0.59582001 25:-0.066200003 26:0.66724998 27:-0.032990001 28:0.77030998 29:-0.02299 30:0.80562001 31:0.067939997 32:0.84842998 33:0 34:1 #
0.089631707128411355900432511134568 1:0.0078800004 2:0.79014999 3:0.02956 4:0.82955998 5:-0.050250001 6:0.74089003 7:0.00612 8:0.78040999 9:-0.01478 10:0.72610998 11:0.05517 12:0.74778003 13:0.033500001 14:0.75961 15:-0.02956 16:0.79113001 17:-0.0078800004 18:0.80098999 19:0.01675 20:0.85123003 21:0.032510001 22:0.83350003 23:-0.00985 24:0.78424001 25:0.01084 26:0.79014999 27:0.0019700001 28:0.80000001 29:0.01084 30:0.79703999 31:-0.01084 32:0.72413999 33:0 34:1 #
-0.089631707128411355900432511134568 1:0.02376 2:0.86733001 3:0.041579999 4:0.87326998 5:0.0019799999 6:0.88119 7:0.016109999 8:0.89002001 9:0.02376 10:0.89306998 11:-0.017820001 12:0.88713002 13:0.0079199998 14:0.90495002 15:0.01386 16:0.94256997 17:0 18:0.93663001 19:0.033659998 20:0.91881001 21:-0.01584 22:0.94059002 23:-0.0098999999 24:0.91286999 25:0.027720001 26:0.92870998 27:0.01386 28:0.89504999 29:0.05545 30:0.87524998 31:-0.031679999 32:0.89504999 33:0 34:1 #
0.089631707128411355900432511134568 1:0.09719 2:0.57418001 3:0.095339999 4:0.60149997 5:-0.21053 6:0.52631998 7:0.089680001 8:0.65419 9:0.21053 10:0.42105001 11:0.081409998 12:0.70301002 13:0.076310001 14:0.72549999 15:0.05263 16:1 17:0.47367999 18:0.84210998 19:0.057560001 20:0.78315002 21:0.050280001 22:0.79856002 23:0 24:0.68421 25:-0.05263 26:0.68421 27:0.026149999 28:0.83155 29:0.01756 30:0.83780998 31:-0.10526 32:0.47367999 33:0 34:1 #
0.089631707128411355900432511134568 1:-0.16827001 2:0.91746998 3:-0.18542001 4:0.88423997 5:-0.12862 6:0.84351999 7:-0.14903 8:0.88244998 9:-0.19507 10:0.90139002 11:-0.12433 12:0.82850999 13:-0.14577 14:0.87996 15:-0.02358 16:0.90781999 17:-0.06109 18:0.87137997 19:-0.13719 20:0.90781999 21:0.01179 22:0.88853002 23:-0.10932 24:0.82208002 25:-0.12755001 26:0.89174998 27:-0.01822 28:0.94104999 29:-0.02465 30:0.89818001 31:-0.0085699996 32:0.88103002 33:0 34:1 #
0.089631707128411355900432511134568 1:-0.068879999 2:0.93144 3:-0.10797 4:1 5:0.01307 6:0.90978003 7:-0.069949999 8:0.95677 9:-0.15674999 10:0.91566998 11:-0.053180002 12:0.97889 13:-0.092840001 14:0.97619998 15:0.01557 16:0.93839997 17:-0.051789999 18:1 19:-0.053429998 20:1 21:-0.030959999 22:0.97979999 23:-0.02716 24:0.98954999 25:-0.093160003 26:0.96973997 27:0.02555 28:0.98312998 29:-0.01918 30:1 31:0.10129 32:0.95881999 33:0 34:1 #
0.089631707128411355900432511134568 1:0.064170003 2:0.97860998 3:0.090910003 4:1 5:0.0107 6:0.87700999 7:0.044520002 8:0.96973997 9:0.053479999 10:0.96257001 11:-0.016039999 12:0.98930001 13:0.02139 14:0.96790999 15:0.042780001 16:0.91443998 17:0.048129998 18:1 19:0.064170003 20:1 21:0 22:1 23:-0.016039999 24:0.93583 25:0.0053500002 26:0.93048 27:0.016039999 28:1 29:0.08021 30:1 31:-0.016039999 32:0.90373999 33:0 34:1 #
0.089631707128411355900432511134568 1:0 2:1 3:-0.11111 4:0.88889003 5:0.11111 6:1 7:-0.053520001 8:0.90346998 9:0 10:0.66667002 11:-0.11111 12:0.66667002 13:-0.11111 14:0.77778 15:-0.11111 16:1 17:0 18:0.77778 19:0 20:0.77778 21:-0.22222 22:1 23:-0.11111 24:0.88889003 25:-0.11111 26:1 27:0.11111 28:0.66667002 29:0 30:1 31:0 32:1 33:0 34:1 #
-0.089631707128411355900432511134568 1:-0.025319999 2:0.83543998 3:0.025319999 4:0.53165001 5:-0.06329 6:1 7:-0.055399999 8:0.84636998 9:-0.37975001 10:0.62024999 11:0.25316 12:1 13:0.06329 14:0.93671 15:-0.01266 16:0.87342 17:-0.36708999 18:0.63291001 19:-0.037969999 20:0.84810001 21:0.06329 22:0.92404997 23:0.11392 24:1 25:0.01266 26:0.88608003 27:-0.10127 28:0.87342 29:-0.20253 30:1 31:-0.24051 32:1 33:0 34:1 #
-0.037900597002420426118174390239801 1:0 2:0 3:-1 4:-1 5:1 6:1 7:-1 8:1 9:-1 10:-1 11:0 12:0 13:0 14:0 15:-1 16:-1 17:0 18:0 19:-1 20:-1 21:-1 22:1 23:-1 24:1 25:-1 26:1 27:0 28:0 29:1 30:1 31:1 32:-1 33:0 34:0 #
-0.089631707128411355900432511134568 1:0.01214 2:0.78438997 3:-0.042199999 4:0.70058 5:-0.076300003 6:0.74045998 7:-0.027310001 8:0.76717001 9:-0.023700001 10:0.74450999 11:-0.060120001 12:0.78843999 13:-0.023700001 14:0.86763 15:0.063579999 16:0.78324002 17:0.067050003 18:0.74798 19:-0.073990002 20:0.83121002 21:0.05029 22:0.84623998 23:-0.11734 24:0.72832 25:-0.075139999 26:0.86821002 27:-0.01214 28:0.87514001 29:0.0023099999 30:0.80462003 31:-0.075719997 32:0.82253999 33:0 34:1 #
-0.089631707128411355900432511134568 1:0.071730003 2:0.80773997 3:0.068000004 4:0.81709999 5:-0.035459999 6:0.74467999 7:0.060139999 8:0.83429003 9:0.11348 10:0.87234002 11:0.05178 12:0.84930998 13:0.047430001 14:0.85597003 15:0.042550001 16:0.95034999 17:0.07801 18:0.95744997 19:0.03382 20:0.87234998 21:0.02912 22:0.87656999 23:0.10638 24:0.73049998 25:-0.01418 26:0.87234002 27:0.01471 28:0.88542002 29:0.0098200003 30:0.88705999 31:0.10638 32:0.74467999 33:0 34:1 #
-0.089631707128411355900432511134568 1:-0.05178 2:0.30421001 3:-0.1068 4:0.49191001 5:-0.067960002 6:0.31391999 7:0.00039999999 8:0.45105001 9:-0.055020001 10:0.52427 11:0.21683 12:0.39159 13:0.14887001 14:0.64725 15:-0.10032 16:0.46926001 17:-0.045310002 18:0.54369003 19:-0.01942 20:0.60193998 21:0.15858001 22:0.64725 23:0.097089998 24:0.67313999 25:0.080909997 26:0.77994001 27:-0.05178 28:0.63107002 29:-0.042070001 30:0.66667002 31:-0.0064699999 32:0.71521002 33:0 34:1 #
0.089631707128411355900432511134568 1:0.27272999 2:0.72727001 3:0.63635999 4:1 5:0.36364001 6:1 7:0.08867 8:1 9:-0.090910003 10:1 11:0.077500001 12:1 13:-0.45455 14:0.90908998 15:-0.27272999 16:1 17:-0.63635999 18:1 19:0.27272999 20:0.63635999 21:-0.45455 22:0.81818002 23:0 24:1 25:-0.090910003 26:1 27:0.63635999 28:0.81818002 29:0.54544997 30:1 31:0.45455 32:1 33:0 34:1 #
0.089631707128411355900432511134568 1:0 2:1 3:0.57143003 4:1 5:0.051819999 6:1 7:0.048909999 8:1 9:-0.28571001 10:0.28571001 11:0 12:1 13:-0.28571001 14:1 15:0.036169998 16:1 17:-0.14286 18:0.42857 19:0 20:1 21:0.02534 22:1 23:-0.14286 24:0.85714 25:-0.14286 26:1 27:0.71429002 28:1 29:0.71429002 30:1 31:0.14286 32:1 33:0 34:1 #
-0.074621027660991018359837312345917 1:-0.9375 2:-0.19791999 3:-0.27083001 4:-0.125 5:-1 6:-0.22916999 7:0.75 8:0.041669998 9:0.5 10:-1 11:0.90625 12:-0.16666999 13:-0.21875 14:-0.19791999 15:0 16:0 17:0 18:0 19:0 20:0 21:0.26041999 22:0.16666999 23:-0.33333001 24:1 25:0 26:0 27:0 28:0 29:0 30:0 31:0 32:0 33:0 34:1 #
-0.089631707128411355900432511134568 1:0.088909999 2:0.55330002 3:0.087569997 4:0.58187002 5:0.01681 6:0.61344999 7:0.082960002 8:0.63727999 9:0.084030002 10:0.66386998 11:0.075769998 12:0.68895 13:0.071220003 14:0.71284997 15:0.042020001 16:0.84034002 17:0.19328 18:0.64705998 19:0.05407 20:0.77441001 21:0.047309998 22:0.79092997 23:0.058820002 24:0.60504001 25:0.01681 26:0.86554998 27:0.02469 28:0.82638001 29:0.016589999 30:0.83311999 31:0.0083999997 32:0.74790001 33:0 34:1 #
-0.089631707128411355900432511134568 1:0.02441 2:0.80088001 3:0.023080001 4:0.80756998 5:0.086960003 6:0.81988001 7:0.020330001 8:0.82111001 9:-0.043480001 10:0.79503 11:0.01749 12:0.83486003 13:0.016030001 14:0.84182 15:0.024839999 16:0.85714 17:-0.062109999 18:0.83850998 19:0.01151 20:0.86303002 21:0.0099400003 22:0.87020999 23:0.074529998 24:0.95030999 25:0 26:0.86334997 27:0.0051000002 28:0.89209998 29:0.00343 30:0.89951003 31:0.037269998 32:0.87577999 33:0 34:1 #
-0.05218972979542409879050168797221 1:-0.0054299999 2:0.79075998 3:-0.1087 4:0.78533 5:-0.032609999 6:0.85869998 7:-0.10211 8:0.83705002 9:-0.1875 10:0.85053998 11:-0.27989 12:0.97283 13:-0.059780002 14:0.86413002 15:0.032609999 16:0.83424002 17:-0.20924 18:0.88042998 19:-0.0054299999 20:0.67935002 21:-0.10598 22:0.82336998 23:-0.057069998 24:0.77174002 25:-0.021740001 26:0.77174002 27:0.040759999 28:0.84783 29:0.073370002 30:0.83424002 31:-0.081519999 32:0.87772 33:0 34:1 #
-0.089631707128411355900432511134568 1:0.07508 2:0.77269 3:0.070900001 4:0.77863002 5:0.09251 6:0.85939002 7:0.062350001 8:0.79057997 9:0.0222 10:0.77336001 11:0.053520001 12:0.80259001 13:0.049010001 14:0.80861998 15:0.024049999 16:0.80018997 17:0.01943 18:0.74838001 19:0.03506 20:0.82679999 21:0.030270001 22:0.83288997 23:0.10916 24:0.84459001 25:-0.00278 26:0.76966 27:0.01546 28:0.85123998 29:0.01038 30:0.85737997 31:0.11933 32:0.94080001 33:0 34:1 #
-0.089631707128411355900432511134568 1:-0.27451 2:0.47059 3:-0.21569 4:0.43136999 5:-0.31373 6:0.56862998 7:-0.24668001 8:0.52408999 9:-0.25490001 10:0.45098001 11:-0.23529001 12:0.66667002 13:-0.19608 14:0.58824003 15:-0.21569 16:0.54901999 17:-0.11765 18:0.54901999 19:-0.09804 20:0.64705998 21:-0.13725001 22:0.66667002 23:-0.11765 24:0.68627 25:-0.11765 26:0.62744999 27:-0.078429997 28:0.60784 29:0 30:0.72548997 31:-0.078429997 32:0.62744999 33:0 34:1 #
-0.010391940886639638996769008372212 1:-0.10309 2:0.44767001 3:-0.12218 4:0.15602 5:-0.13346 6:0.52819997 7:-0.10571 8:0.56835997 9:-0.04699 10:0.64850003 11:-0.40977001 12:0.84773999 13:0.20489 14:0.66917002 15:0.045109998 16:0.76128 17:-0.42669001 18:0.72368002 19:0.14662001 20:0.69736999 21:0.06391 22:0.65977001 23:-0.27632001 24:0.50187999 25:0.19361 26:0.82519001 27:-0.0056400001 28:0.75375998 29:0.35337999 30:1 31:-0.35526001 32:0.58459002 33:0 34:1 #
-0.016780427062811763272431875293478 1:0.28794 2:-0.19066 3:0.31128001 4:-0.093390003 5:0.14786001 6:-0.14786001 7:0.26256001 8:-0.06024 9:0.28481999 10:-0.024940001 11:0.29960999 12:0.077820003 13:0.097280003 14:0.24902999 15:0.24902999 16:0.050579999 17:0.36965001 18:-0.038910002 19:0.22957 20:0.089489996 21:0.36965001 22:0.24514 23:0.25292 24:0.19454999 25:0.1323 26:0.23345999 27:0.24124999 28:0.26459 29:0.073930003 30:0.41244999 31:0.15564001 32:0.38521001 33:0 34:1 #
-0.089631707128411355900432511134568 1:-0.35032001 2:-0.47200999 3:-0.22949 4:-0.54615003 5:-0.13462 6:-0.64872003 7:0.022770001 8:-0.66650999 9:0.15908 10:-0.64657998 11:0.35534 12:-0.64999998 13:0.48120001 14:-0.55769002 15:0.61688 16:-0.43707001 17:0.72073001 18:-0.28268999 19:0.89274001 20:-0.068269998 21:0.83311999 22:0.10107 23:0.88291001 24:0.36774001 25:0.78119999 26:0.53311998 27:0.62414998 28:0.76902002 29:0.47029999 30:0.91965997 31:0.21676999 32:0.99700999 33:0 34:1 #
-0.016897111304927152353183572586204 1:-0.091459997 2:0.61372 3:-0.0096300002 4:0.61733001 5:0.044520002 6:0.51384002 7:0.020190001 8:0.60462999 9:0.14079 10:0.65944999 11:0.031289998 12:0.50059998 13:0.10108 14:0.58964998 15:0 16:0.67148 17:0.091459997 18:0.67509001 19:-0.084239997 20:0.62936002 21:0.0722 22:0.67027998 23:-0.074610002 24:0.62454998 25:0.0096300002 26:0.63177001 27:-0.074610002 28:0.60408998 29:0.0048099998 30:0.59085 31:-0.034899998 32:0.62335002 33:0 34:1 #
-0.0056519723412152625408033657095075 1:0 2:0 3:0 4:0 5:-0.75625002 6:-0.27917001 7:-1 8:-1 9:-0.40832999 10:0.98750001 11:0 12:0 13:0 14:0 15:-0.18333 16:0.59166998 17:-0.45416999 18:0.16458 19:0 20:0 21:0 22:0 23:0.02083 24:0.58958 25:0.51042002 26:0.46458 27:0 28:0 29:0 30:0 31:-0.5 32:0.42708001 33:0 34:1 #
